svm_type epsilon_svr
kernel_type rbf
gamma 0.05
nr_class 2
total_sv 10649
rho -0.166081
SV
-0.06062107175185598 1:0.32187797 2:1.579907 3:2.9083339 4:7.7076194 5:14.764203 6:8.3262017 7:4.4873407 8:3.5122329 9:3.0838255 10:11.942083 11:15.331156 12:8.34361 13:9.4501046 14:13.737746 15:5.1698115 16:1.436901 17:1.711411 18:0.29051278 19:0.35394232 20:0.6511845 
-0.06530504783756717 1:0.44100256 2:1.9315615 3:3.2905187 4:8.12042 5:17.401237 6:7.8045857 7:5.5421964 8:4.0021007 9:4.6158709 10:17.40687 11:15.247822 12:8.0526708 13:11.889501 14:19.790443 15:9.2202552 16:2.131778 17:1.131643 18:0.3508713 19:0.70476584 20:0.81776177 
-0.06522163560215752 1:0.49685967 2:2.0716462 3:3.3516963 4:8.11097 5:13.582229 6:4.8542116 7:3.3127615 8:3.2598207 9:5.3388353 10:20.954126 11:14.281156 12:12.718289 13:23.008489 14:39.137612 15:13.924307 16:2.4817084 17:1.4825257 18:0.33929794 19:0.78193167 20:0.83735167 
-0.06119897856769648 1:0.29443985 2:1.3436847 3:3.0303341 4:7.5280803 5:7.9600351 6:3.6065972 7:2.2620687 8:1.8756691 9:3.4699371 10:10.133146 11:5.020764 12:5.8975139 13:10.141846 14:15.720278 15:4.8622975 16:2.4794796 17:1.7811792 18:0.22439226 19:0.23472697 20:0.39706219 
-0.07039425604424354 1:0.41888493 2:2.2892755 3:4.5311417 4:15.486025 5:21.829309 6:11.092966 7:6.0512575 8:3.9651485 9:6.0489035 10:10.617129 11:5.5276672 12:9.2679333 13:17.624012 14:24.266187 15:6.2495995 16:2.0823989 17:1.2364684 18:0.18428272 19:0.25590563 20:0.54334604 
-0.06412050836386327 1:0.47514261 2:2.5434724 3:4.798603 4:16.451335 5:35.362416 6:17.408661 7:6.6860411 8:3.9592212 9:6.9663659 10:15.229943 11:4.8096714 12:7.0694155 13:12.810416 14:27.696324 15:9.3021478 16:1.7382487 17:1.239947 18:0.16926764 19:0.38197078 20:0.7357386 
-0.06760401000344521 1:0.48212189 2:2.4821441 3:4.7523023 4:19.388206 5:32.975806 6:15.21293 7:6.0510143 8:4.5308202 9:11.679075 10:26.635263 11:8.5484065 12:13.015677 13:18.814013 14:23.610497 15:10.401472 16:2.3149502 17:0.59863619 18:0.17220173 19:0.27433305 20:0.43208167 
-0.06554012490245298 1:0.42349185 2:2.2374958 3:5.8449513 4:20.499736 5:16.389185 6:7.5871479 7:3.6742072 8:2.8829962 9:6.4879027 10:14.214029 11:4.7914075 12:9.0146786 13:15.398206 14:17.012039 15:4.545784 16:1.401204 17:0.28792567 18:0.127339 19:0.13504858 20:0.2456433 
-0.06086772239646596 1:0.17823086 2:0.9725768 3:3.5600033 4:5.7601505 5:2.7412106 6:1.2323843 7:2.324287 8:3.7989113 9:5.3512442 10:4.8404235 11:4.276525 12:4.9554133 13:8.2131428 14:8.6069282 15:4.2973071 16:3.0913878 17:1.709815 18:1.3860723 19:1.1556081 20:1.7600118 
-0.06504285348319624 1:0.68864864 2:3.292454 3:9.7920898 4:37.573494 5:25.110431 6:11.915111 7:8.4650196 8:11.025104 9:29.917885 10:12.926279 11:5.6269895 12:12.105865 13:15.859417 14:13.646723 15:14.820791 16:3.5878015 17:1.2994245 18:1.2296464 19:1.1818974 20:1.6947038 
-0.06405775136453391 1:0.71854193 2:3.4882269 3:9.9147281 4:52.492703 5:58.292772 6:25.848475 7:17.747723 8:36.676773 9:35.313451 10:7.6990376 11:5.1441166 12:13.141147 13:17.199344 14:11.904172 15:11.017683 16:3.5237856 17:1.0689157 18:0.49667232 19:1.0466637 20:2.1979484 
-0.06399391271455317 1:0.69877444 2:3.4953525 3:9.5110495 4:48.192675 5:66.970345 6:37.550544 7:32.382334 8:58.779359 9:17.948864 10:4.9198506 11:3.7219563 12:9.0314387 13:13.093061 14:16.107453 15:10.987603 16:3.4521816 17:1.04268 18:0.63485099 19:0.81643847 20:1.339198 
-0.06691760279002353 1:0.70185229 2:3.3805797 3:9.5079605 4:44.933484 5:77.041735 6:52.244169 7:69.143967 8:48.925164 9:8.5425719 10:3.5985552 11:2.7341651 12:7.5052582 13:19.878073 14:18.379969 15:8.8370949 16:3.6843853 17:1.269193 18:0.56091034 19:1.0956958 20:0.67486736 
-0.06395668048204012 1:0.66582634 2:3.1301761 3:9.2859139 4:47.982052 5:85.026463 6:66.902159 7:87.702352 8:28.704304 9:6.9436876 10:3.3031816 11:2.5388195 12:4.9735313 13:26.469945 14:29.775217 15:13.475364 16:2.9391253 17:1.0897038 18:0.57740324 19:1.3433274 20:0.50786132 
-0.06535525437956106 1:0.61414369 2:2.8991848 3:9.3621591 4:49.968519 5:85.201649 6:74.584619 7:60.540307 8:17.857438 9:4.3161946 10:2.5316175 11:2.1852798 12:3.8320751 13:27.648764 14:37.322322 15:18.645693 16:4.5633145 17:1.0311358 18:0.37618123 19:1.2316091 20:0.4785702 
-0.06391433084822815 1:0.52268279 2:2.5193284 3:9.3573944 4:48.674991 5:77.847284 6:71.290004 7:49.766813 8:8.8502994 9:3.3877783 10:1.9599319 11:1.6977645 12:2.4227804 13:18.797331 14:31.266267 15:20.412881 16:5.5595374 17:1.8242893 18:0.39896894 19:1.0307303 20:0.50179298 
-0.06382480003282882 1:0.40178718 2:2.0214942 3:8.680293 4:39.745739 5:63.69944 6:49.407096 7:43.060766 8:5.9749193 9:1.9591193 10:1.1514979 11:1.062408 12:1.5847211 13:11.697734 14:23.261331 15:22.917898 16:5.5713141 17:1.5258354 18:0.28821142 19:0.96965061 20:0.4292793 
-0.06568000954897632 1:0.23759978 2:1.5103378 3:6.220453 4:25.551732 5:30.533296 6:23.39375 7:27.632427 8:3.8326412 9:1.0544045 10:0.70773799 11:0.61603684 12:1.0731664 13:8.8311166 14:17.605621 15:26.394554 16:6.7080709 17:1.2496089 18:0.13949705 19:0.34519445 20:0.21735216 
-0.03921060728172907 1:0.10928412 2:0.93404195 3:3.6899381 4:9.7298563 5:5.4754365 6:6.654048 7:10.393831 8:1.853781 9:0.58400366 10:0.35233338 11:0.30742869 12:0.60003636 13:4.6413779 14:5.3752197 15:6.4219338 16:3.8258942 17:0.58413187 18:0.13834747 19:0.39122026 20:0.24220697 
-0.06994489674733811 1:0.40881478 2:2.0346225 3:5.2336465 4:16.407844 5:23.81679 6:12.772459 7:7.6235924 8:9.1587166 9:21.2813 10:16.000669 11:7.6719822 12:10.321651 13:10.078063 14:17.391925 15:21.202146 16:3.035141 17:0.7022423 18:0.21785587 19:0.3790706 20:0.81012813 
-0.06459683131116414 1:0.46542316 2:2.3846691 3:5.9456018 4:17.341938 5:29.176279 6:19.766509 7:11.275854 8:9.5740349 9:20.641621 10:37.34297 11:17.172971 12:17.019184 13:17.395176 14:20.803206 15:26.150343 16:3.2936554 17:0.70296888 18:0.22829674 19:0.61144597 20:1.1369651 
-0.06936281299668218 1:0.48875425 2:2.5498316 3:6.4793444 4:19.361803 5:34.515023 6:22.860797 7:11.953193 8:9.3196277 9:15.265806 10:38.473215 11:21.478629 12:16.96105 13:18.970035 14:18.200851 15:21.52669 16:3.0042002 17:0.86275945 18:0.28416647 19:0.45097066 20:1.146479 
-0.06782986440273557 1:0.47229813 2:2.5097649 3:6.5878247 4:21.156556 5:34.118926 6:20.734617 7:10.529032 8:7.5895196 9:10.743968 10:31.504401 11:25.0252 12:17.445705 13:13.053896 14:7.8759044 15:12.527568 16:3.4250739 17:0.73963333 18:0.23068753 19:0.58080945 20:1.1322706 
-0.06844854677646575 1:0.453816 2:2.3904011 3:6.6365987 4:23.335079 5:32.505329 6:18.015752 7:8.5990583 8:6.1999156 9:8.3216512 10:29.340441 11:29.379944 12:14.154091 13:8.2298571 14:7.8432181 15:7.0239905 16:2.3101235 17:0.70585775 18:0.21720441 19:0.96145448 20:1.2347424 
-0.06759946059774707 1:0.45184096 2:2.3530761 3:6.7295857 4:24.714325 5:35.039818 6:17.987003 7:9.0151321 8:6.8482367 9:9.9952207 10:35.890332 11:28.772588 12:17.522702 13:9.24741 14:7.862254 15:11.19812 16:2.6177616 17:0.62512629 18:0.39664337 19:0.85526294 20:1.1373235 
-0.06469566364161042 1:0.46560938 2:2.3234286 3:6.5180249 4:24.126214 5:40.638953 6:21.019178 7:10.246227 8:9.8295728 9:19.283368 10:25.409913 11:12.57806 12:11.091465 13:8.2789104 14:6.9858246 15:10.287212 16:2.8150939 17:0.53277028 18:0.22918735 19:0.63059656 20:1.2718035 
-0.06249881477277506 1:0.4764997 2:2.2619638 3:6.0869868 4:20.919308 5:42.64084 6:25.888958 7:13.286854 8:19.966229 9:32.827228 10:12.309213 11:6.353424 12:5.6363595 13:5.4985659 14:4.9554297 15:10.624573 16:4.5783531 17:0.99927756 18:0.56142042 19:0.4978195 20:0.95581486 
-0.07052997200121119 1:0.42756857 2:2.0541439 3:5.3236768 4:18.616372 5:39.302075 6:26.76147 7:21.602435 8:42.065661 9:17.644464 10:4.6954195 11:3.5136714 12:5.5209385 13:5.1068693 14:3.7004934 15:7.6522636 16:3.0412091 17:1.3597721 18:0.50735206 19:0.54610163 20:0.4871555 
-0.06902525274703815 1:0.3772043 2:1.8584039 3:5.0847897 4:19.98496 5:36.539705 6:25.421627 7:34.344704 8:29.155589 9:4.8145382 10:2.517294 11:2.3036361 12:4.4240681 13:5.6665368 14:3.6346706 15:3.8485495 16:2.2658258 17:1.2197785 18:0.2036432 19:0.23934373 20:0.58876904 
-0.02778376688660213 1:0.36084006 2:1.7975497 3:5.0159146 4:21.669932 5:34.339037 6:27.966891 7:36.537895 8:15.2181 9:3.6122493 10:2.1302461 11:1.8611802 12:3.5026694 13:4.9868863 14:4.0087263 15:4.5360689 16:2.8631075 17:2.0724452 18:0.12437796 19:0.18799286 20:0.35421947 
-0.04308115007314635 1:0.36419929 2:1.8864994 3:5.6303239 4:25.40353 5:32.442986 6:26.268772 7:37.453546 8:13.844882 9:2.7157155 10:1.9316955 11:1.7999098 12:3.5760951 13:4.9045583 14:3.7185464 15:5.3121294 16:2.7429243 17:1.886313 18:0.1329338 19:0.14670339 20:0.29472195 
-0.03962921561639016 1:0.35172269 2:2.0375151 3:6.7538564 4:25.212726 5:21.844721 6:17.543545 7:28.219835 8:11.101355 9:2.1865275 10:1.5121603 11:1.4328658 12:3.3780375 13:4.4971802 14:3.532776 15:5.1009742 16:2.2043871 17:1.6167095 18:0.11873084 19:0.12831708 20:0.16671977 
-0.06492500790346534 1:0.42872119 2:2.2693751 3:6.9412339 4:29.618288 5:31.08605 6:13.124287 7:10.564676 8:28.444745 9:20.588698 10:4.8554868 11:3.8574331 12:9.5743734 13:6.2656748 14:2.8256656 15:4.1399327 16:2.3265444 17:1.1832234 18:0.33577278 19:0.77783634 20:0.87417949 
-0.07039144231933875 1:0.5074983 2:2.6301821 3:7.2054335 4:40.481168 5:57.700232 6:26.386093 7:15.0726 8:32.470058 9:38.781542 10:9.0932075 11:5.9521373 12:13.453357 13:10.015953 14:4.4153422 15:6.746745 16:3.913691 17:1.7909565 18:0.46066078 19:0.86925657 20:1.142377 
-0.06378575996729582 1:0.54581773 2:2.8762045 3:7.2884302 4:32.729866 5:51.741867 6:26.879404 7:17.228229 8:39.296458 9:50.807086 10:9.954658 11:5.6647946 12:11.064637 13:7.3531019 14:2.493948 15:5.0750293 16:4.2802445 17:1.8939337 18:0.24085554 19:0.94392262 20:1.4102208 
-0.06385470953044718 1:0.56316876 2:3.1341329 3:8.1391593 4:39.423465 5:46.534022 6:23.887786 7:17.049334 8:43.676694 9:42.530659 10:8.408348 11:4.928042 12:11.687496 13:7.6273085 14:2.6405538 15:4.6555744 16:3.2501347 17:1.3194874 18:0.27433885 19:0.71101315 20:1.0460612 
-0.06310362885581874 1:0.40351727 2:2.6547576 3:9.389216 4:29.104284 5:15.0485 6:9.2435856 7:9.5546663 8:22.633145 9:14.278859 10:2.8650002 11:2.0520792 12:5.0892183 13:2.6170247 14:0.96017295 15:1.7827553 16:1.3288762 17:0.87234455 18:0.1329918 19:0.36219616 20:0.47250785 
-0.04985200237499978 1:0.57290824 2:2.4109856 3:7.5800055 4:20.7258 5:9.408441 6:5.4830281 7:6.6543487 8:15.207484 9:8.5362146 10:2.6869144 11:2.5424835 12:5.8535785 13:2.9482999 14:6.7895947 15:9.6794543 16:2.7000829 17:0.51322474 18:0.3155009 19:1.2787973 20:1.3981438 
-0.04914835728770361 1:0.48250572 2:2.6115018 3:8.6893588 4:26.119471 5:15.485425 6:8.029551 7:7.7484393 8:18.973353 9:10.731695 10:2.8833669 11:3.0819468 12:6.845279 13:2.3195014 14:3.118411 15:4.8784659 16:2.4148489 17:0.47029754 18:0.35876163 19:1.3120172 20:1.7677985 
-0.05563350727880165 1:0.41674471 2:2.3333863 3:6.5277344 4:26.05321 5:19.926752 6:11.803616 7:8.4403508 8:17.384117 9:10.640623 10:2.9185611 11:2.5108909 12:5.0024346 13:1.8090271 14:2.1770609 15:5.5078847 16:2.0172568 17:0.32920754 18:0.387577 19:1.2580807 20:1.7382166 
-0.04603934785565231 1:0.38770375 2:2.2401983 3:5.8017547 4:20.817018 5:16.020918 6:10.776513 7:8.8822881 8:15.80604 9:7.9493357 10:2.568044 11:2.4036455 12:3.9156343 13:2.0256909 14:1.3712598 15:3.0128183 16:1.3519545 17:0.30573984 18:0.45616274 19:1.085735 20:1.6744139 
-0.03476402978313955 1:0.36371251 2:2.1085135 3:5.4336256 4:17.094709 5:13.286652 6:9.1045962 7:8.633559 8:16.282446 9:6.3318303 10:2.3323929 11:2.2927429 12:3.1338519 13:1.6725075 14:1.5203441 15:2.9856523 16:0.7462137 17:0.24678092 18:0.34974652 19:0.67113913 20:1.2807081 
-0.005573408042693365 1:0.35947496 2:1.9716518 3:5.1268448 4:15.033831 5:11.39153 6:7.6059817 7:7.5280132 8:13.921586 9:4.9300704 10:1.8458093 11:1.8429759 12:2.2750262 13:1.0565134 14:1.1660969 15:3.0590432 16:1.2818563 17:0.22451729 18:0.34054648 19:0.78392951 20:0.95719766 
-0.06036083691832279 1:0.061512208 2:0.1013603 3:0.25518637 4:0.39815499 5:0.24297859 6:0.1553113 7:0.35316195 8:0.38459233 9:0.51258191 10:0.60616776 11:0.68943894 12:2.0711249 13:5.326872 14:19.460664 15:43.720067 16:12.859248 17:9.1198669 18:7.4247082 19:5.9015987 20:5.0521696 
-0.1625815793146589 1:0.022324884 2:0.1573573 3:0.32860102 4:0.74071516 5:1.122047 6:1.7879046 7:2.1515805 8:1.339584 9:0.90237368 10:1.5819461 11:1.796385 12:2.4689923 13:4.6288915 14:20.54116 15:44.898821 16:21.798456 17:12.865546 18:10.695129 19:9.3634118 20:8.9948214 
-0.09313565082146071 1:0.0087835525 2:0.053184562 3:0.1818954 4:0.48310021 5:0.97080777 6:0.86823326 7:1.0376627 8:1.013299 9:1.4046554 10:1.3766636 11:1.1087525 12:1.3667182 13:2.4193507 14:10.435518 15:39.981235 16:23.39586 17:12.64836 18:10.743246 19:6.848334 20:6.396235 
-0.7765707444059664 1:0.0082131732 2:0.029488397 3:0.14162209 4:0.27355581 5:0.42050206 6:0.78416937 7:1.0617263 8:1.2792921 9:1.107224 10:1.5425216 11:1.3378537 12:1.4072646 13:3.5487175 14:9.1458531 15:30.030909 16:19.318918 17:14.448195 18:8.5576392 19:7.2465683 20:6.8807906 
-1 1:0.0064302617 2:0.0065638553 3:0.013814002 4:0.019851651 5:0.026715238 6:0.028666341 7:0.036783938 8:0.044536431 9:0.056941989 10:0.065647297 11:0.053220437 12:0.088426912 13:0.35202892 14:0.98379358 15:1.3466512 16:1.0089029 17:0.64483649 18:0.36874338 19:0.33480398 20:0.37117786 
-0.00542111724774888 1:0.14114492 2:0.65212689 3:0.86029323 4:1.4493627 5:2.2875687 6:2.8429673 7:3.9223544 8:3.4042906 9:1.8321916 10:2.3847766 11:5.4568232 12:3.3566279 13:5.7702028 14:6.9698849 15:15.57072 16:13.173034 17:8.6182822 18:7.989156 19:6.8246776 20:4.929283 
-0.06520074970205146 1:0.71200633 2:3.1830631 3:9.09126 4:12.278484 5:4.3563963 6:2.9296423 7:2.288569 8:2.0161128 9:2.560075 10:5.3070373 11:14.355282 12:10.905802 13:16.065837 14:10.784503 15:16.842154 16:9.82364 17:1.3338984 18:0.37361618 19:1.4068847 20:1.1179925 
-0.06265348037492594 1:0.58420481 2:3.1428666 3:12.941287 4:15.767679 5:5.2383813 6:3.760342 7:3.0450008 8:2.6959015 9:3.3702641 10:8.0422394 11:27.545603 12:22.476867 13:37.985355 14:29.016466 15:43.483632 16:16.248379 17:1.4981895 18:0.42049932 19:1.9792889 20:1.6975482 
-0.06407843930661329 1:0.50933124 2:3.0312073 3:13.23036 4:14.300728 5:5.3240761 6:3.4660865 7:2.8697433 8:2.7522617 9:3.371068 10:6.6998186 11:30.57614 12:22.804487 13:40.074892 14:29.728954 15:37.612963 16:11.593723 17:1.042939 18:0.24978771 19:1.0587296 20:1.0166012 
-0.06556046112238006 1:0.47147422 2:2.9259635 3:12.835839 4:12.429992 5:4.9922686 6:3.2842626 7:2.5737722 8:2.348158 9:2.7337072 10:4.7619966 11:24.635451 12:21.008666 13:30.972464 14:24.549117 15:29.15129 16:7.7885994 17:0.80162015 18:0.22423419 19:0.88649088 20:0.84114064 
-0.0626300519380312 1:0.44600633 2:2.6796829 3:11.96045 4:10.791085 5:4.6864435 6:3.0706755 7:2.2291642 8:2.0348723 9:2.2013594 10:3.7543857 11:20.053978 12:18.872241 13:25.324644 14:17.111642 15:17.429377 16:4.5282201 17:0.47998365 18:0.1875049 19:0.50671823 20:1.1109988 
-0.03816585646518886 1:0.40889757 2:2.6732166 3:11.452508 4:9.7531041 5:4.2865539 6:2.8256904 7:2.0796337 8:1.7790675 9:1.912078 10:2.9557258 11:14.731554 12:15.714484 13:20.770948 14:16.087733 15:18.069224 16:5.3150075 17:0.49576815 18:0.21018888 19:0.94101028 20:1.6886113 
-0.04292277726226749 1:0.38106614 2:2.6238615 3:11.322189 4:8.74871 5:3.9900981 6:2.7342267 7:1.8691347 8:1.5831697 9:1.7865052 10:2.4755983 11:12.510407 12:12.576212 13:16.64115 14:15.462457 15:16.737779 16:3.3638058 17:0.2658878 18:0.23107041 19:0.89808225 20:1.3480357 
-0.0294008722245835 1:0.37840211 2:2.55656 3:11.271394 4:8.5970948 5:3.9561186 6:2.6232096 7:1.879124 8:1.5144887 9:1.7088251 10:2.4484614 11:13.032198 12:16.423798 13:17.561903 14:16.873142 15:20.337396 16:5.8763185 17:0.52793346 18:0.23460333 19:0.90388713 20:0.85199234 
-0.03291718408491316 1:0.37149318 2:2.4664062 3:10.429827 4:7.7528599 5:3.6796119 6:2.4493277 7:1.6003588 8:1.3241073 9:1.6011367 10:2.4116742 11:11.414563 12:15.3211 13:13.147947 14:11.651501 15:17.612836 16:4.5226808 17:0.30321114 18:0.31488999 19:1.1634065 20:0.87046667 
-0.0464900747352389 1:0.34955865 2:2.4263738 3:9.9955044 4:7.2982279 5:3.2085838 6:2.1727242 7:1.5046172 8:1.3480687 9:1.5646724 10:2.3533599 11:10.147623 12:13.63704 13:9.4436189 14:6.6374212 15:11.811178 16:3.0510005 17:0.2562567 18:0.24155264 19:0.78777205 20:0.60645215 
-0.008661892596500841 1:0.35784433 2:1.9192755 3:6.8971121 4:5.6681283 5:2.362083 6:1.5061547 7:1.2207244 8:1.0737967 9:1.136554 10:3.1305466 11:12.719138 12:13.271387 13:6.7787409 14:3.2470184 15:6.7479635 16:4.2112989 17:0.45378732 18:0.17581866 19:0.46006315 20:0.36261945 
-0.02076883048080742 1:0.26714217 2:0.91263318 3:2.4275611 4:2.0173915 5:0.79644428 6:0.75739423 7:0.85460557 8:0.47169547 9:0.77571457 10:2.7738442 11:7.6807326 12:7.3249127 13:3.4112441 14:1.3066847 15:4.6077994 16:5.8842983 17:2.4358684 18:1.232187 19:0.81933352 20:1.1170468 
-0.318899079258639 1:0.037245068 2:0.089740414 3:0.19460827 4:0.37005687 5:0.35790547 6:0.62279862 7:0.62007101 8:0.45654085 9:0.78910805 10:1.0989837 11:1.0879568 12:1.1941065 13:1.3801357 14:1.3878292 15:2.8520421 16:4.883968 17:5.2604894 18:3.0051101 19:2.4683145 20:3.451888 
-0.3406196003913107 1:0.064372552 2:0.075088991 3:0.21541161 4:0.52390779 5:0.66716112 6:0.55521415 7:0.50970125 8:0.65820941 9:0.54057486 10:1.0898599 11:1.1078061 12:1.0973767 13:1.4689045 14:2.0213441 15:4.4280278 16:7.5995523 17:9.2789851 18:4.0297653 19:2.9356087 20:4.0753915 
-1 1:0.026531575 2:0.070107856 3:0.1696633 4:0.4839594 5:0.53991442 6:0.71157779 7:0.68418348 8:0.71052146 9:0.71168552 10:1.266939 11:1.1422904 12:1.3050586 13:1.3494613 14:1.8542034 15:3.2214551 16:6.4235136 17:7.4352753 18:3.8181171 19:3.3130778 20:3.9764619 
-0.03312876754297767 1:0.23464864 2:1.3680814 3:2.3397183 4:4.3877241 5:10.056133 6:8.9496977 7:6.5540264 8:13.311624 9:10.31395 10:5.0549589 11:4.9109962 12:1.1357812 13:1.580435 14:6.7835909 15:3.146765 16:0.69788668 17:0.32106477 18:0.137915 19:0.21281157 20:0.25823744 
-0.04118494480526205 1:0.28188301 2:1.5950693 3:2.9794398 4:6.6925229 5:14.854427 6:11.2088 7:5.6074165 8:13.213631 9:17.970614 10:7.8342119 11:3.6634869 12:0.98083323 13:2.5601789 14:4.3986342 15:1.7775162 16:1.3668375 17:1.3520224 18:0.19940779 19:0.23834334 20:0.31297202 
-0.03578639970325612 1:0.26912324 2:1.6552577 3:3.1085896 4:7.3634038 5:12.845883 6:8.21632 7:4.128951 8:7.3272765 9:15.87094 10:9.4760571 11:3.1614716 12:1.4056734 13:4.7001674 14:5.0466142 15:2.4058134 16:1.5508828 17:2.2339687 18:0.20212204 19:0.13641695 20:0.20019836 
-0.05566816024105899 1:0.2214004 2:1.3500901 3:2.6255375 4:5.9551492 5:5.8634994 6:5.6679614 7:3.7941498 8:6.2252444 9:21.452168 10:5.5655702 11:0.9471476 12:1.9479252 13:5.9968033 14:3.8566382 15:2.8431744 16:1.9873833 17:3.1555407 18:0.30143385 19:0.15960053 20:0.18555154 
-0.04551970398811124 1:0.19066858 2:1.3538337 3:3.1813015 4:5.9746809 5:4.0072623 6:4.5329443 7:2.880405 8:2.8576169 9:12.529508 10:2.8716796 11:0.87439262 12:1.9675794 13:5.09628 14:3.1074038 15:2.3478388 16:3.0510437 17:3.87896 18:0.36482446 19:0.15125683 20:0.2004939 
-0.03202104385942714 1:0.19538115 2:1.3403375 3:3.1501054 4:6.2438263 5:3.634443 6:3.2107392 7:1.6431038 8:2.9442719 9:8.2719454 10:2.2928203 11:1.1635926 12:2.4100834 13:6.2295769 14:3.3830354 15:2.6255725 16:2.2259983 17:2.6952544 18:0.22537598 19:0.15859918 20:0.16105054 
-0.02320278813012028 1:0.25383914 2:1.5419035 3:3.3107157 4:8.477773 5:9.7365987 6:7.2679996 7:5.8069466 8:11.884767 9:12.686082 10:5.872561 11:2.2047949 12:3.1577228 13:5.3282593 14:2.5370309 15:1.9948925 16:3.1005072 17:2.9323072 18:0.27231583 19:0.1228887 20:0.18818803 
-0.06932981501076291 1:0.38883689 2:2.1667554 3:4.5518596 4:13.774214 5:35.60666 6:27.869507 7:19.843911 8:38.17397 9:25.442129 10:8.9207785 11:4.8334115 12:2.2924139 13:2.9347601 14:9.6399194 15:7.9010239 16:4.3115818 17:1.9090544 18:0.2007974 19:0.35559683 20:0.57892815 
-0.06718828051831122 1:0.42313746 2:2.1962814 3:4.5711926 4:12.622965 5:39.339126 6:38.992667 7:28.053009 8:48.392924 9:22.355269 10:5.608018 11:3.9466374 12:1.797257 13:3.7709997 14:12.577496 15:13.801791 16:2.9067473 17:1.3966224 18:0.21899203 19:0.74744317 20:0.92788251 
-0.06667255923599219 1:0.43265505 2:2.1709352 3:4.5890001 4:12.521403 5:42.496003 6:48.922186 7:39.357816 8:61.626304 9:20.363012 10:5.3914748 11:4.3665203 12:2.8502232 13:5.6465474 14:14.976028 15:19.291903 16:3.4412021 17:2.4165065 18:0.4011561 19:1.0089446 20:1.4972364 
-0.06358899848879956 1:0.38638225 2:2.1250607 3:4.4309705 4:12.112448 5:43.311133 6:56.549005 7:45.939221 8:77.660189 9:29.977351 10:7.0622152 11:5.980127 12:2.894961 13:6.2692733 14:15.373346 15:20.075935 16:3.1575108 17:1.4864555 18:0.37130014 19:0.80156758 20:1.0913317 
-0.06514215020096027 1:0.31528846 2:1.8285446 3:4.3701761 4:10.834974 5:42.256425 6:58.648398 7:43.230969 8:71.662599 9:42.403106 10:10.961315 11:8.9821471 12:4.0294518 13:8.5122606 14:14.087026 15:19.459192 16:3.5450092 17:1.0760891 18:0.39783016 19:1.6112875 20:2.0004136 
-0.06862414101106989 1:0.19566061 2:1.3285439 3:3.3098436 4:6.8055414 5:31.522278 6:38.690624 7:22.270502 8:25.40537 9:21.071588 10:3.9892589 11:3.5111905 12:2.3993915 13:7.7302726 14:14.577491 15:26.265476 16:5.2318552 17:1.5185849 18:0.20519812 19:1.0635675 20:1.3001769 
-0.06922033290467568 1:0.16453231 2:0.99151676 3:3.1690374 4:8.0753137 5:26.304932 6:19.085327 7:10.388822 8:19.559019 9:24.218494 10:6.8178932 11:2.7702084 12:2.1405953 13:5.6728367 14:5.7832628 15:24.42939 16:8.1397415 17:0.80231987 18:0.11890912 19:0.6965008 20:0.69005105 
-0.1261482415393203 1:0.095692751 2:0.53033077 3:1.2420021 4:2.5519714 5:3.1393086 6:1.5037834 7:1.5068025 8:2.3656241 9:3.6976573 10:1.0078552 11:0.40243785 12:0.49206705 13:0.84424606 14:0.71013886 15:2.1034571 16:1.5049633 17:0.54825153 18:0.12079748 19:0.2439305 20:0.23550816 
-0.7395374563047694 1:0.016758872 2:0.057517939 3:0.13775604 4:0.21047036 5:0.36420549 6:0.53495736 7:0.66905295 8:0.79214584 9:0.86811782 10:0.96126293 11:1.0354993 12:1.0621834 13:2.3221521 14:6.2686984 15:11.302877 16:6.8713671 17:4.0134076 18:3.2726448 19:2.4356298 20:3.6410259 
0.6156325951882193 1:0.0101193 2:0.069981525 3:0.20822545 4:0.69830267 5:1.2763368 6:1.9381146 7:2.2965781 8:2.3659024 9:2.5034369 10:3.039844 11:2.7298109 12:2.1634529 13:6.8988347 14:17.282793 15:23.326257 16:20.041946 17:16.062772 18:11.488111 19:11.599122 20:9.7742722 
0.7185001657770825 1:0.0053745733 2:0.029445664 3:0.071099009 4:0.13297056 5:0.27305465 6:0.32912698 7:0.61068289 8:0.65042891 9:0.45053829 10:0.64791287 11:0.89341613 12:1.6196508 13:5.2727192 14:21.883984 15:40.626803 16:35.335122 17:23.138432 18:18.541476 19:14.370836 20:10.767733 
0.7135518945906542 1:0.0080579163 2:0.052326649 3:0.087125078 4:0.25096138 5:0.4537972 6:0.47879739 7:0.59160346 8:0.73441248 9:1.0304235 10:0.6649884 11:0.71573131 12:1.2430346 13:4.2574379 14:19.054081 15:44.550485 16:29.362688 17:21.404328 18:18.877866 19:15.296259 20:14.446431 
0.6725438686491281 1:0.012190554 2:0.071723977 3:0.11069207 4:0.25326546 5:0.33880642 6:0.51216159 7:0.57492165 8:0.82373269 9:1.7333572 10:0.93744855 11:0.93490197 12:1.5989692 13:4.5968057 14:10.37894 15:28.094173 16:29.39279 17:21.668777 18:17.899278 19:11.346767 20:12.35912 
0.5368557831366235 1:0.018971483 2:0.066765438 3:0.12192215 4:0.22723241 5:0.73884226 6:0.9639256 7:0.95696253 8:0.68640987 9:1.3994048 10:1.3243882 11:0.84554512 12:1.3861343 13:3.5388818 14:7.6306279 15:29.97876 16:23.614582 17:16.967584 18:12.079606 19:13.176038 20:10.59764 
0.7513201767448237 1:0.019130488 2:0.054782462 3:0.14725464 4:0.40407317 5:0.47483176 6:1.0157263 7:1.0086143 8:0.70605553 9:1.3396346 10:1.432628 11:1.1474879 12:1.4217486 13:2.9447579 14:9.9531378 15:24.541974 16:19.967957 17:13.371 18:6.6240667 19:5.4281461 20:6.6293826 
1 1:0.079498008 2:0.14970861 3:0.33325895 4:0.53367204 5:0.52036062 6:0.58191273 7:1.0494672 8:0.74128161 9:0.92410922 10:2.0589349 11:1.7973538 12:1.1652866 13:1.8069486 14:5.1716793 15:9.686396 16:6.1787359 17:5.1324262 18:4.4720708 19:3.6894835 20:2.9791988 
1 1:0.445327 2:2.13922 3:5.878814 4:8.9568889 5:4.8901616 6:2.7613983 7:2.1652818 8:2.100789 9:3.759964 10:4.3188571 11:2.1077374 12:3.8004812 13:3.0329035 14:3.1966055 15:10.112198 16:5.2987791 17:0.58706969 18:0.27785312 19:0.41697663 20:0.41258143 
0.7321563696799455 1:0.43207524 2:2.210467 3:8.3226467 4:13.49998 5:6.8066466 6:3.8892023 7:3.1186505 8:3.4626413 9:7.0813358 10:7.3695319 11:3.9573028 12:6.4137323 13:3.1166765 14:3.6038261 15:12.713282 16:6.9305036 17:0.50466747 18:0.29195411 19:0.85626453 20:0.88876599 
-0.2763861196412324 1:0.41011234 2:2.2334705 3:8.4824733 4:12.894557 5:6.8922865 6:3.9999547 7:3.2754158 8:3.8219838 9:7.057816 10:6.1043095 11:2.919521 12:4.3613923 13:2.0339975 14:2.3746419 15:9.0197409 16:5.0233343 17:0.40329553 18:0.24738554 19:1.1476163 20:0.99625138 
-0.01744261216946195 1:0.41036528 2:2.1777764 3:8.7176951 4:14.900851 5:7.8579033 6:4.4770657 7:3.5904508 8:4.6401926 9:7.9351268 10:6.3048503 11:2.8674355 12:5.2896945 13:2.3646846 14:3.8142794 15:9.34858 16:2.3888716 17:0.21500514 18:0.22093279 19:0.82216541 20:1.1338291 
-0.02929665033169842 1:0.20440463 2:1.2860806 3:6.2789838 4:9.3215063 5:4.7967878 6:2.965895 7:2.235474 8:3.0006708 9:6.3933938 10:4.1094198 11:1.6445172 12:3.542997 13:2.2580521 14:2.6871388 15:3.0534632 16:0.65270105 17:0.12423689 18:0.14871101 19:0.58526928 20:0.63379323 
-0.04099876055660284 1:0.3522066 2:2.0106926 3:6.2200173 4:13.598191 5:6.9580017 6:3.9849775 7:3.9679443 8:7.5640815 9:11.972012 10:4.9424332 11:3.1382852 12:7.8201268 13:5.8682914 14:5.0561462 15:3.5496052 16:1.2578148 17:0.49765886 18:0.42775763 19:0.53090679 20:0.48157307 
-0.0511200377965999 1:0.39752574 2:2.1366225 3:7.6004265 4:22.936437 5:9.2828878 6:5.8784657 7:5.4445849 8:13.490889 9:8.7686696 10:2.9918095 11:2.1693969 12:4.1079684 13:2.1179078 14:3.58155 15:6.4561889 16:1.824421 17:0.30588775 18:0.16850008 19:0.83618156 20:0.6584269 
-0.006159747783352557 1:0.25642175 2:1.4039703 3:3.4998047 4:9.1414756 5:7.7436355 6:6.01042 7:6.8297355 8:2.4717655 9:0.62359044 10:0.43293429 11:0.34838459 12:1.5384877 13:3.3435824 14:6.1917986 15:5.5742107 16:1.5951229 17:0.43659015 18:0.1642513 19:0.18985349 20:0.25030184 
-0.02332356489158063 1:0.28495172 2:1.8359542 3:5.4522162 4:21.677704 5:19.07444 6:15.323915 7:20.276072 8:4.9169847 9:0.95083578 10:0.47662904 11:0.22429431 12:1.9172772 13:5.7184971 14:10.156648 15:9.0300639 16:2.4103592 17:0.79276438 18:0.1267777 19:0.2255209 20:0.20925626 
-0.02971079139019418 1:0.30828047 2:1.7944547 3:5.3280297 4:22.296456 5:21.00326 6:15.499744 7:20.284242 8:4.9349791 9:1.0737887 10:0.44764015 11:0.27484494 12:1.4018111 13:5.3724952 14:10.745238 15:10.952496 16:2.4951916 17:0.72483972 18:0.10483808 19:0.17880244 20:0.17831203 
-0.04522083215750712 1:0.28255257 2:1.7058656 3:5.3185659 4:20.991284 5:19.216249 6:18.180131 7:22.023495 8:4.3325676 9:1.2836184 10:0.69529475 11:0.59359155 12:1.6208273 13:4.5453421 14:10.721084 15:14.470403 16:4.8461157 17:0.78902096 18:0.12796413 19:0.19733298 20:0.18225104 
-0.04811950352947957 1:0.27901283 2:1.6004531 3:5.1387796 4:19.827686 5:17.00428 6:19.504916 7:19.922675 8:3.0831688 9:1.3371076 10:0.74588506 11:0.66253592 12:1.735526 13:3.6759968 14:6.9536308 15:10.336759 16:5.2330271 17:0.9949826 18:0.10803564 19:0.2115747 20:0.16476234 
-0.02996286405432964 1:0.26154153 2:1.5338875 3:5.0934326 4:17.836703 5:14.514605 6:18.211044 7:17.291294 8:2.3447734 9:0.99888162 10:0.55685337 11:0.44949739 12:1.1792632 13:2.9721308 14:5.1027045 15:8.5541731 16:5.2809939 17:1.0060621 18:0.12665128 19:0.22973051 20:0.20024549 
-0.03011147683688166 1:0.27913564 2:1.5457936 3:5.070974 4:17.07479 5:11.989763 6:15.652472 7:14.260523 8:1.9797212 9:0.8077098 10:0.43159489 11:0.33009561 12:0.82870823 13:1.9846023 14:3.9894625 15:7.2143589 16:4.7252719 17:0.96838163 18:0.11063938 19:0.19581176 20:0.14435104 
-0.03966485023689158 1:0.23805209 2:1.7327942 3:5.6532769 4:15.635357 5:11.748149 6:7.6091568 7:10.935515 8:21.847714 9:10.413396 10:8.2248176 11:1.2532523 12:0.33820165 13:0.53763096 14:1.5643527 15:0.79812744 16:0.4507724 17:0.22947076 18:0.12821431 19:0.24856748 20:0.51919789 
-0.02206557695722984 1:0.20708357 2:1.4471389 3:4.9948897 4:14.069324 5:10.020606 6:5.5445834 7:6.8542922 8:18.397685 9:9.1729599 10:4.6840809 11:0.84550686 12:0.29287139 13:0.3852629 14:1.2699171 15:0.79790032 16:0.44935003 17:0.18652876 18:0.10844979 19:0.24191437 20:0.63061024 
-0.007089156146144512 1:0.15436621 2:1.1336368 3:4.4115355 4:8.8434427 5:4.5769478 6:2.5076664 7:3.2694716 8:5.8484895 9:6.2035896 10:4.4266407 11:1.0420402 12:0.30061527 13:0.64840583 14:2.2578576 15:1.2970288 16:0.89113702 17:0.23035059 18:0.11470912 19:0.21111642 20:0.7051817 
-0.05996637107695915 1:0.13151206 2:0.82400283 3:2.7377188 4:2.6677577 5:1.1032996 6:0.57091059 7:0.40766211 8:0.32473106 9:0.33886392 10:0.89263652 11:4.0617317 12:3.101547 13:5.3817169 14:7.8077147 15:9.7661952 16:2.6972039 17:0.4501116 18:0.083154135 19:0.17816247 20:0.16023791 
-0.02945942293442495 1:0.24539275 2:1.1671772 3:2.2228589 4:1.8634689 5:0.80452882 6:0.5892863 7:0.2867851 8:0.30602538 9:0.28538641 10:0.78290021 11:5.5500336 12:4.4682154 13:7.7611294 14:10.871015 15:16.297547 16:4.3661492 17:0.51312215 18:0.15788639 19:0.25960368 20:0.23935998 
-0.06696339612932516 1:0.29840489 2:2.0020879 3:4.4041115 4:3.4734653 5:1.2735225 6:0.82185005 7:0.59708864 8:0.59172327 9:0.60986394 10:1.2847343 11:8.101583 12:8.4068153 13:12.368568 14:28.199557 15:30.115869 16:6.8645234 17:0.8877439 18:0.15744189 19:0.36193279 20:0.500167 
-0.07017057366443652 1:0.31903357 2:2.1571294 3:6.3087216 4:4.2634766 5:1.8877065 6:1.3906652 7:0.87280489 8:0.72905746 9:0.70962937 10:1.5590798 11:10.535792 12:11.339027 13:19.0073 14:36.031051 15:40.791359 16:9.669119 17:1.0247866 18:0.17032484 19:0.62336743 20:0.93613334 
-0.0621765336550839 1:0.35190563 2:2.293265 3:6.2264436 4:4.6304299 5:1.8409513 6:1.4168288 7:1.0930262 8:1.0252216 9:0.9995637 10:2.1845463 11:15.60826 12:18.115825 13:22.030783 14:25.900847 15:27.041077 16:8.0933733 17:0.86015592 18:0.29577001 19:0.93661274 20:1.0831243 
-0.04545808834817026 1:0.39425972 2:2.6067264 3:8.8098192 4:6.9400121 5:2.720735 6:1.9419438 7:1.4447744 8:1.312009 9:1.215728 10:2.3681451 11:14.22345 12:16.973168 13:22.665565 14:19.755207 15:20.182339 16:4.5225815 17:0.72076552 18:0.20508822 19:0.50869397 20:0.71665474 
-0.0601849707338583 1:0.43324513 2:2.7508565 3:10.416056 4:8.018457 5:3.0798275 6:2.2157625 7:1.8025834 8:1.5725805 9:1.6123833 10:3.3738792 11:17.488586 12:16.276539 13:26.503517 14:25.736644 15:26.364864 16:5.7757713 17:0.39422758 18:0.29455875 19:0.9473394 20:0.76412822 
-0.04684249230619715 1:0.32355315 2:2.0128748 3:6.010956 4:3.9468754 5:1.9406323 6:1.6073671 7:1.0773376 8:1.0694727 9:1.1418475 10:2.9296609 11:11.714827 12:9.5961297 13:14.816859 14:11.928139 15:12.316114 16:3.9293293 17:1.3468564 18:0.67963468 19:0.44777828 20:0.30936937 
-0.03146435143062338 1:0.33257188 2:1.8827539 3:5.4301369 4:5.3594941 5:2.2701429 6:1.5148704 7:1.1770617 8:0.99754049 9:1.0149816 10:2.2659613 11:7.188923 12:5.1429978 13:12.131477 14:13.238851 15:15.854851 16:6.1973544 17:2.6983051 18:1.1562772 19:0.9237759 20:0.54261983 
-0.0514870561034606 1:0.38329481 2:1.9273698 3:6.0275365 4:11.868206 5:5.5700266 6:3.3961144 7:1.7472153 8:1.1600502 9:1.3269024 10:2.8978973 11:13.386409 12:10.369294 13:19.077288 14:17.53589 15:18.980172 16:5.7671479 17:0.90049523 18:0.44120592 19:1.0770077 20:0.50637319 
-0.06791390280239205 1:0.29679171 2:1.8312296 3:4.8281311 4:13.841991 5:6.7531783 6:4.4970528 7:2.127236 8:1.1421079 9:0.67627395 10:1.1737544 11:6.6990015 12:6.8560147 13:12.945736 14:19.102723 15:19.657648 16:5.3808626 17:0.91938552 18:0.19399295 19:0.45015211 20:0.49018422 
-0.05585367171498987 1:0.27113993 2:1.5585758 3:4.0003227 4:9.9858331 5:5.3487986 6:3.4849617 7:1.9942872 8:1.189446 9:0.37407612 10:0.43351467 11:1.9371372 12:6.2988199 13:9.2912645 14:13.129873 15:17.779588 16:5.127165 17:0.74733539 18:0.157831 19:0.30184628 20:0.42483427 
-0.05616502797514791 1:0.029004404 2:0.090193828 3:0.15692652 4:0.28331333 5:0.96031 6:0.85814695 7:0.44480853 8:0.56284163 9:0.70662207 10:3.0301249 11:8.8837703 12:12.709852 13:19.812673 14:18.637983 15:16.358653 16:11.98447 17:9.2689036 18:6.5683694 19:7.548437 20:8.0320216 
-0.05789180369528787 1:0.020698791 2:0.10040589 3:0.23708677 4:0.28289794 5:0.59668421 6:1.196687 7:0.67805854 8:0.60588351 9:0.93549058 10:2.8591536 11:8.4652756 12:10.709041 13:20.507345 14:19.689074 15:23.632073 16:15.512999 17:13.49761 18:8.5230994 19:8.696986 20:10.699568 
-0.06128768845520288 1:0.02216087 2:0.11080443 3:0.30065368 4:0.55287489 5:1.0482974 6:0.48182052 7:0.98206616 8:0.56882718 9:0.7314473 10:2.5577221 11:6.9106798 12:18.059916 13:28.348002 14:24.855235 15:23.809934 16:16.214979 17:13.418841 18:9.9072214 19:10.54884 20:10.586257 
-0.0519327809639949 1:0.047040652 2:0.1029529 3:0.22707976 4:0.48898247 5:1.4476656 6:0.79094872 7:0.72623939 8:0.62966805 9:1.0357435 10:3.6999589 11:7.435277 12:11.948895 13:19.153982 14:21.517423 15:21.413214 16:12.540474 17:9.9465311 18:9.4290976 19:11.130582 20:9.1683529 
-0.05701182548470762 1:0.041331194 2:0.2012847 3:0.39750807 4:0.78208362 5:0.98435928 6:1.1525883 7:1.1777813 8:0.78683095 9:1.2267765 10:5.3375358 11:11.85479 12:19.933471 13:25.827329 14:15.293918 15:13.555109 16:8.8635916 17:6.9308936 18:6.7380735 19:7.4906216 20:6.687918 
-0.06545519115343335 1:0.3404884 2:1.894406 3:5.3622409 4:25.396119 5:12.637408 6:6.6064128 7:3.6560528 8:3.3404296 9:5.8577922 10:13.468021 11:14.818694 12:18.442599 13:13.905209 14:20.024076 15:13.02796 16:4.058218 17:1.3458957 18:0.9649621 19:0.73070461 20:0.94969338 
-0.06464379668337586 1:0.36482115 2:1.9877859 3:5.063496 4:26.931778 5:27.253092 6:9.8723947 7:6.9165104 8:6.388043 9:13.916978 10:20.034499 11:7.7001016 12:9.876391 13:6.9397311 14:15.733421 15:14.120788 16:4.0205608 17:1.2482549 18:0.33397123 19:0.51132834 20:0.50196586 
-0.06440202726856332 1:0.38514734 2:2.0702875 3:5.0864951 4:23.952882 5:45.72986 6:17.648962 7:10.30369 8:13.072993 9:27.280636 10:12.889295 11:6.0076977 12:7.8525378 13:7.4183536 14:9.6350967 15:12.346057 16:4.0720839 17:1.3490025 18:0.2160567 19:0.48554555 20:0.4896209 
-0.06952647039255733 1:0.36527712 2:2.0937212 3:4.8227268 4:20.688924 5:56.224216 6:26.606244 7:15.196094 8:26.787126 9:21.919937 10:5.5866312 11:3.9301805 12:8.4847218 13:6.2968641 14:9.3741536 15:14.634883 16:4.8133168 17:3.2423184 18:0.38046066 19:0.61779839 20:0.67531736 
-0.06898423519229038 1:0.33543039 2:1.883738 3:4.1713077 4:16.471168 5:46.979408 6:21.450929 7:20.311865 8:32.436232 9:8.2383042 10:2.8606726 11:1.8447279 12:5.9364581 13:6.3206778 14:8.5097536 15:10.747384 16:2.7320322 17:1.0124661 18:0.24244896 19:0.31430794 20:0.34286459 
-0.06460822716143358 1:0.29214529 2:1.6675508 3:3.633537 4:15.32205 5:36.527058 6:15.636341 7:26.103496 8:16.954431 9:1.9003694 10:1.170453 11:1.0042616 12:3.0830117 13:4.667142 14:7.3399832 15:7.3684753 16:2.2284712 17:1.1832346 18:0.14764563 19:0.22597721 20:0.18585319 
-0.06386545041884638 1:0.29535467 2:1.6838132 3:3.9909475 4:18.154476 5:31.131477 6:16.261003 7:23.973105 8:9.2388353 9:1.6160576 10:0.74625946 11:0.75359592 12:2.7043014 13:4.5955583 14:5.9517655 15:6.7151506 16:2.3241229 17:0.97451635 18:0.15483346 19:0.26470704 20:0.24584672 
-0.04700374824922506 1:0.30875889 2:1.6498432 3:4.3351102 4:18.703413 5:19.559596 6:14.478903 7:20.742022 8:5.4145137 9:1.0584264 10:0.55092934 11:0.41296569 12:1.6688135 13:3.108911 14:4.8884805 15:5.7581847 16:1.5770427 17:0.77715184 18:0.11788037 19:0.12915333 20:0.14819614 
-0.09782645216832385 1:0.23491817 2:1.2252334 3:2.5333016 4:10.676281 5:6.5944129 6:1.8947044 7:1.3382839 8:1.9894555 9:4.2805702 10:5.0000624 11:2.8851613 12:6.4215218 13:6.3016861 14:4.9469633 15:6.9854093 16:2.2813115 17:0.84087413 18:0.15854197 19:0.23193031 20:0.3351957 
-0.1374096590949089 1:0.38209263 2:2.15981 3:7.4174166 4:9.0083145 5:3.7644368 6:3.0022147 7:3.1093115 8:6.4079073 9:5.4586907 10:1.7574019 11:2.8354394 12:5.1909709 13:1.8179992 14:3.5836804 15:7.7865175 16:3.8601152 17:0.50701425 18:0.13145563 19:0.34033715 20:0.97684891 
-0.06061018995582761 1:0.4274677 2:2.3476529 3:9.1025993 4:9.8812208 5:4.4851581 6:3.2883943 7:2.7921581 8:3.2227158 9:4.7218647 10:3.593339 11:6.6638594 12:9.9690957 13:4.023085 14:5.6615288 15:14.106258 16:6.0013481 17:0.44033646 18:0.12648548 19:0.24388491 20:0.93047535 
-0.05400944415870371 1:0.46378751 2:2.4572466 3:9.2627911 4:10.187122 5:4.8759786 6:3.2188899 7:2.4160468 8:2.4598403 9:3.1596168 10:4.9921089 11:11.832354 12:16.649543 13:7.2179246 14:5.3523753 15:15.014069 16:8.0724367 17:0.45172995 18:0.16045153 19:0.35322005 20:0.89860869 
-0.04262216151520674 1:0.51495126 2:1.9245479 3:5.7927494 4:9.0829601 5:3.6426359 6:2.7255124 7:2.1595383 8:1.7570809 9:1.4735983 10:3.1884712 11:13.681942 12:21.755522 13:8.5538997 14:5.7394151 15:15.621003 16:10.908841 17:1.0663939 18:0.16754275 19:0.40410882 20:1.4482561 
-0.07033288127185275 1:0.77953212 2:2.5489888 3:4.7087208 4:11.078059 5:20.263363 6:17.330506 7:11.358412 8:6.9637726 9:7.0066899 10:10.032183 11:10.932109 12:14.156481 13:11.986786 14:6.1041667 15:9.2731283 16:5.1448636 17:2.3262076 18:0.83927179 19:1.0940716 20:1.2493299 
-0.06925828141247753 1:0.63086721 2:2.9091643 3:6.471725 4:16.731203 5:55.312873 6:40.170121 7:20.960219 8:19.102297 9:28.006791 10:44.315616 11:24.995461 12:24.027364 13:23.652232 14:11.649225 15:15.963415 16:8.5251584 17:2.2199958 18:0.56780007 19:1.2704388 20:0.98298138 
-0.06352962387704152 1:0.54948541 2:2.8380038 3:6.7408947 4:15.225463 5:83.257504 6:78.126278 7:29.38708 8:18.930819 9:35.612761 10:47.488746 11:18.656192 12:13.717837 13:12.66093 14:7.9052892 15:9.474408 16:4.9431982 17:1.195326 18:0.49600653 19:1.7788506 20:1.7979926 
-0.06333549242164808 1:0.57256292 2:2.8362684 3:6.96415 4:14.939493 5:78.224661 6:98.04151 7:28.846593 8:21.668433 9:49.711481 10:46.160632 11:17.766963 12:11.498553 13:11.441381 14:8.3070245 15:7.9123533 16:4.5433592 17:1.4499197 18:0.45855706 19:1.4401938 20:2.033147 
-0.06481727816754715 1:0.60128388 2:2.8563909 3:6.9772659 4:14.97701 5:76.47231 6:103.4759 7:27.154152 8:26.368969 9:60.683949 10:45.184472 11:17.983962 12:10.744228 13:9.9148327 14:6.7954824 15:7.5697405 16:5.3061979 17:1.1200987 18:0.39773136 19:1.677825 20:3.3058752 
-0.06563132982512444 1:0.64400689 2:2.8335597 3:7.2251241 4:18.054977 5:83.752352 6:85.86342 7:26.048855 8:29.472088 9:56.212825 10:31.899575 11:18.126098 12:14.187654 13:9.2536423 14:5.4332587 15:6.0493279 16:4.5461795 17:1.1259648 18:0.40121146 19:1.0282694 20:2.3838619 
-0.07026207878482638 1:0.64327689 2:2.7689865 3:7.0025088 4:23.873045 5:62.820719 6:34.77257 7:23.471987 8:33.746091 9:37.468723 10:13.982454 11:11.680539 12:11.995652 13:6.1304594 14:5.6608526 15:6.6288237 16:2.6051318 17:0.71729502 18:0.22882615 19:0.40672852 20:1.5934263 
-0.03470611433535827 1:0.27595901 2:1.156691 3:3.9519938 4:9.6757656 5:12.134166 6:7.0534494 7:9.1276419 8:17.11964 9:7.0805599 10:3.7981456 11:4.5198446 12:4.5639554 13:1.9830847 14:3.2046861 15:6.2873661 16:1.9500962 17:0.65355926 18:0.38875536 19:0.34839502 20:0.6475212 
-0.05941238100998714 1:0.37069154 2:1.5935872 3:4.851586 4:13.035655 5:19.255237 6:12.294798 7:12.808938 8:21.51308 9:11.390082 10:5.9963239 11:6.8840365 12:7.5649096 13:3.8245615 14:4.6421583 15:8.574843 16:2.882207 17:0.97745572 18:0.12866168 19:0.27723056 20:0.68857944 
-0.05592273081229483 1:0.30893134 2:1.465941 3:4.6652984 4:13.761617 5:21.463867 6:13.448014 7:12.679115 8:21.763116 9:17.403797 10:6.6234759 11:6.5670518 12:7.0423191 13:4.8804004 14:2.3564416 15:7.2736681 16:2.7677667 17:0.83104758 18:0.14319564 19:0.35782143 20:0.51803822 
-0.167651775603129 1:0.18714607 2:1.195893 3:3.0240498 4:8.3500374 5:9.8125918 6:6.1526117 7:5.4332524 8:9.2984987 9:8.5835931 10:2.755755 11:2.9419092 12:3.5590084 13:5.1001617 14:1.8071221 15:9.9453576 16:6.5978521 17:1.7412307 18:0.17920666 19:0.42014494 20:0.59846715 
0.4062412149752905 1:0.034957358 2:0.069674252 3:0.099768457 4:0.26270227 5:0.35082575 6:0.39550255 7:0.66952317 8:0.6902414 9:0.95417624 10:1.3043431 11:1.0171274 12:1.7905253 13:2.921626 14:12.657528 15:35.554097 16:21.399694 17:17.682644 18:15.553336 19:11.886675 20:8.3623628 
0.4889228391976271 1:0.014993079 2:0.052016824 3:0.094899375 4:0.10539729 5:0.34023852 6:0.68066291 7:0.83220872 8:1.3396391 9:1.651183 10:1.5900726 11:2.1729379 12:3.0720016 13:6.6515983 14:12.514065 15:31.287064 16:28.990331 17:21.688429 18:16.195048 19:13.833955 20:15.1486 
0.681806695352098 1:0.011608232 2:0.094709389 3:0.13863214 4:0.32696992 5:0.67915188 6:0.8990876 7:0.86810103 8:0.80400706 9:1.4756203 10:1.7411261 11:3.107316 12:3.9756166 13:9.2424303 14:13.561958 15:48.631891 16:26.177033 17:18.333451 18:14.429115 19:13.368802 20:13.976794 
0.7335569028373857 1:0.026084586 2:0.13414526 3:0.211108 4:0.28913637 5:0.68774523 6:0.89204432 7:1.7793431 8:1.4114007 9:2.0464997 10:3.0923382 11:2.6650745 12:4.9502875 13:8.9820179 14:15.871543 15:53.699961 16:36.534011 17:22.523781 18:18.244102 19:15.379083 20:11.359538 
0.7350970343852511 1:0.031378623 2:0.10643869 3:0.26671192 4:0.53700826 5:0.45440204 6:1.4687686 7:2.9430519 8:2.1441008 9:2.945872 10:3.9001915 11:4.5121143 12:4.8399364 13:12.12001 14:12.685161 15:67.396912 16:40.268186 17:25.981338 18:14.155075 19:13.943487 20:11.324436 
0.5671833556068306 1:0.029080576 2:0.13286804 3:0.43968291 4:0.39606576 5:0.74548666 6:0.99891864 7:1.2088751 8:1.9135779 9:2.6386488 10:2.4289407 11:2.2768068 12:3.8152619 13:7.812197 14:9.6941347 15:25.820113 16:18.576077 17:11.451197 18:8.0919802 19:7.212666 20:6.4022718 
0.8374196212292817 1:0.04944936 2:0.31522124 3:0.52291657 4:0.98376712 5:2.0585148 6:1.8573267 7:2.4948103 8:2.6143154 9:3.5361239 10:2.3043289 11:1.4439984 12:4.7586856 13:10.032471 14:9.5092854 15:14.840589 16:11.464502 17:5.7355178 18:5.2188526 19:4.4406789 20:4.6312518 
1 1:0.17604905 2:0.80046295 3:1.2643641 4:1.6413684 5:1.3234112 6:1.1759202 7:1.2891144 8:1.4862035 9:0.93052223 10:0.60715828 11:0.72862545 12:2.4899696 13:4.6583434 14:4.7602366 15:8.3516796 16:6.5099275 17:3.5804266 18:2.5038337 19:2.013638 20:1.5525807 
0.7337409354916475 1:0.3742937 2:1.7830055 3:6.5041322 4:10.66594 5:5.4497181 6:4.9519375 7:8.1867413 8:7.4561691 9:1.7436945 10:0.67449288 11:0.52632936 12:1.0153426 13:4.2703048 14:6.6485732 15:18.115762 16:9.372166 17:2.2800356 18:1.8580568 19:1.4554391 20:1.4069885 
-0.06739698538915428 1:0.38176502 2:1.9906536 3:7.5518483 4:14.547963 5:8.4661547 6:6.550044 7:11.335763 8:14.392451 9:2.3193185 10:1.1725454 11:1.1374162 12:2.3030921 13:6.0211035 14:9.0318799 15:18.466442 16:6.5698698 17:1.1791826 18:0.15949751 19:0.64829805 20:0.42563815 
-0.06189452177544805 1:0.43433193 2:2.2599539 3:6.8365593 4:25.008283 5:25.909406 6:14.232819 7:16.067557 8:29.848542 9:10.853747 10:3.1201057 11:2.1828719 12:4.4490941 13:7.7886406 14:8.7156695 15:15.259658 16:6.0430051 17:1.1443631 18:0.32548984 19:0.91388653 20:0.59604633 
-0.06911662949257652 1:0.46619075 2:2.4664512 3:5.8279544 4:26.775711 5:58.345661 6:26.331656 7:17.707485 8:33.625351 9:31.146927 10:7.7768467 11:4.5962523 12:10.324481 13:15.360865 14:8.480013 15:12.147475 16:4.9910586 17:1.150288 18:0.29986121 19:1.7659246 20:1.5916262 
-0.06328945261550645 1:0.42783478 2:2.2862147 3:5.7523656 4:18.282178 5:65.636781 6:34.603195 7:21.174963 8:24.900263 9:36.333049 10:11.679199 11:5.7926314 12:10.320718 13:11.584004 14:7.2934886 15:11.843021 16:5.75293 17:1.4976477 18:0.16903836 19:2.2472375 20:2.4768517 
-0.06328317792998568 1:0.34064956 2:1.9333621 3:5.3761764 4:17.110506 5:68.785794 6:32.475213 7:24.021761 8:25.004873 9:43.071988 10:11.094955 11:6.1948409 12:10.521344 13:8.6071839 14:9.6437323 15:21.555831 16:9.1208517 17:1.5717145 18:0.1761087 19:1.2900594 20:1.6128462 
-0.06966343341561546 1:0.24592346 2:1.3520771 3:3.3076888 4:13.625449 5:26.649787 6:9.7930939 7:7.0810995 8:10.130157 9:14.083031 10:2.9383089 11:2.5084042 12:6.5082559 13:4.3748115 14:5.972732 15:21.382147 16:6.6988489 17:1.2100217 18:0.1523685 19:0.70986592 20:1.1064084 
-0.350439135027551 1:0.066191057 2:0.54189295 3:0.78138818 4:1.3496773 5:0.92574548 6:0.34476044 7:0.27135439 8:0.74606851 9:0.49935501 10:0.18354846 11:0.17477469 12:0.23788427 13:0.1276271 14:0.21663037 15:1.262381 16:0.34590722 17:0.088512547 18:0.084116472 19:0.1206312 20:0.12239269 
-0.9665768288157669 1:0.090337343 2:0.15792693 3:0.2779798 4:0.87423501 5:0.91807258 6:0.95655853 7:1.0990285 8:1.1834803 9:0.81774464 10:2.0123372 11:2.4676068 12:3.0166089 13:4.2478365 14:5.7360187 15:8.8019334 16:5.897016 17:4.7166481 18:3.0534814 19:2.5444391 20:2.3257269 
-0.006234760269132845 1:0.34454879 2:1.4650122 3:3.6344806 4:6.0739538 5:2.6369845 6:2.1139467 7:1.5818307 8:1.1746676 9:1.5652547 10:5.2694511 11:7.489629 12:5.6190436 13:3.1938864 14:3.9762318 15:9.9557562 16:5.5539074 17:1.3972945 18:0.72408928 19:0.64318016 20:0.56803612 
-0.03512953089186535 1:0.35070072 2:2.0622646 3:6.5964681 4:6.5266112 5:2.3634474 6:1.8490085 7:1.5441322 8:1.4004871 9:1.7314561 10:5.8079565 11:18.825079 12:13.180368 13:3.7491342 14:5.026579 15:14.589433 16:5.9324621 17:0.27048323 18:0.18004478 19:0.20721458 20:0.43870211 
-0.009502941863689437 1:0.17753694 2:1.0905275 3:2.8087561 4:1.9988663 5:0.76219811 6:0.64876586 7:0.35573722 8:0.42372676 9:0.46651079 10:1.5179921 11:7.7800962 12:4.1692305 13:0.88836605 14:1.3704073 15:4.5460203 16:1.7757796 17:0.16324438 18:0.15137452 19:0.15837427 20:0.44160954 
-0.06207416218025134 1:0.37772796 2:2.3218015 3:9.4639231 4:12.013498 5:4.8274543 6:2.9292693 7:2.0531845 8:1.7556985 9:2.1050692 10:5.4951979 11:17.192955 12:10.751409 13:16.485932 14:19.046896 15:24.617256 16:6.6059506 17:0.51413389 18:0.14100015 19:0.4015439 20:0.68837115 
-0.06319234176546588 1:0.39295392 2:2.3265614 3:8.7647156 4:23.119127 5:10.961655 6:5.5627528 7:3.5067326 8:2.7491827 9:3.1573728 10:9.1219642 11:20.245884 12:9.492958 13:10.822382 14:13.719303 15:17.957594 16:5.1015688 17:0.54903029 18:0.21022235 19:0.76932191 20:0.6901436 
-0.065028226361484 1:0.42377922 2:2.4453803 3:7.4458102 4:38.110601 5:21.391327 6:9.6314002 7:4.797259 8:4.0295675 9:4.8685988 10:15.684569 11:17.662417 12:12.389287 13:12.640002 14:16.162152 15:15.486654 16:3.4234587 17:0.5049659 18:0.12431543 19:0.7042476 20:0.78228497 
-0.05984004503612404 1:0.42341971 2:2.3043146 3:5.5179709 4:25.485411 5:35.201443 6:13.176235 7:7.5519874 8:6.3723275 9:9.2299851 10:31.097835 11:19.013121 12:18.75184 13:12.548556 14:16.769482 15:17.231198 16:3.8644237 17:0.41033525 18:0.15021497 19:0.74853434 20:0.93990178 
-0.06807359202317825 1:0.42255764 2:2.3402635 3:5.6761463 4:23.285124 5:61.428957 6:22.614664 7:10.355933 8:7.7558812 9:13.562689 10:29.169855 11:11.945287 12:12.160196 13:9.5006801 14:15.335097 15:11.89426 16:2.1728326 17:0.48179956 18:0.30215318 19:1.7735502 20:1.4234775 
-0.06964053993636596 1:0.44787269 2:2.3513505 3:5.6050089 4:21.522342 5:69.125803 6:35.386026 7:11.162796 8:9.554117 9:17.599553 10:16.490942 11:6.7333104 12:12.489145 13:8.2250893 14:10.505261 15:7.3504385 16:2.8257528 17:0.59672924 18:0.24942876 19:1.5594658 20:1.6801445 
-0.06974271921394448 1:0.45572673 2:2.4093494 3:5.4644918 4:19.785109 5:61.97935 6:37.741466 7:12.012519 8:12.338315 9:25.283992 10:16.272722 11:6.9545666 12:9.5959051 13:8.6683406 14:10.437248 15:7.7924654 16:2.4830636 17:0.63356 18:0.37609072 19:1.7534976 20:1.712793 
-0.06854004026345056 1:0.44295927 2:2.4733761 3:5.860285 4:24.044214 5:56.837012 6:31.945798 7:11.318331 8:12.361085 9:23.208241 10:11.125195 11:5.1559135 12:8.4992806 13:13.921759 14:11.20848 15:8.8777058 16:3.4259482 17:0.71583678 18:0.35337663 19:1.414773 20:1.6624901 
-0.06541903037052896 1:0.45748213 2:2.40066 3:5.9362666 4:32.034243 5:32.923007 6:15.632124 7:8.2442875 8:9.0954062 9:17.011572 10:6.6704334 11:2.4888974 12:5.3037883 13:12.731159 14:8.6041269 15:6.8484626 16:3.0355157 17:2.1280896 18:1.0868894 19:1.2369184 20:1.2988643 
-0.09518874950311847 1:0.15251874 2:0.82105984 3:2.2824308 4:3.3243702 5:2.9225841 6:1.6313986 7:1.2627277 8:1.5781243 9:2.3460088 10:0.7387843 11:0.32490205 12:1.0467164 13:2.5053559 14:1.3272896 15:1.0077558 16:0.89902864 17:0.43834623 18:0.20014039 19:0.2554245 20:0.37764292 
-0.04725297418362245 1:0.41221742 2:2.2147639 3:5.9495342 4:25.008736 5:13.43441 6:6.4890866 7:4.9355873 8:4.5485802 9:10.328715 10:7.5009787 11:2.4490615 12:3.6983821 13:7.5011168 14:7.0124416 15:6.9525949 16:4.2070651 17:0.91739008 18:0.38826764 19:0.96604971 20:0.94094977 
-0.03862530424223482 1:0.37566101 2:2.1774229 3:6.2345436 4:23.065131 5:14.320968 6:7.3904541 7:4.8347225 8:4.7340098 9:10.997657 10:7.7902444 11:4.229963 12:2.9911764 13:4.5218429 14:8.3747208 15:5.2010028 16:2.6084896 17:0.60064986 18:0.094227905 19:0.3322654 20:0.41836681 
-0.01945659980411426 1:0.38236498 2:2.0823749 3:6.1456528 4:20.099692 5:9.9532549 6:5.5070826 7:4.1157079 8:4.5394595 9:10.517948 10:8.0878547 11:4.2226048 12:2.1891125 13:2.4769964 14:4.4343645 15:2.5000637 16:1.4722165 17:0.40105176 18:0.10849591 19:0.20586088 20:0.25449136 
-0.006665685092804782 1:0.35502999 2:2.0111248 3:6.0578462 4:18.608193 5:8.4643199 6:5.0140721 7:3.9332263 8:4.5541545 9:12.094219 10:9.3247367 11:3.3772573 12:1.2139478 13:2.4233291 14:3.3063903 15:1.9727176 16:0.84903364 17:0.17644305 18:0.11522182 19:0.1091779 20:0.19514934 
-0.01160080560661659 1:0.33671857 2:1.5004785 3:3.7994393 4:9.2277659 5:3.6472196 6:4.3409972 7:3.7937028 8:3.4623831 9:6.3598521 10:4.8545742 11:1.440199 12:1.1702734 13:2.152506 14:2.1135462 15:1.2968475 16:1.9222063 17:0.82334933 18:0.5878603 19:0.43232027 20:0.5286836 
1 1:0.089386872 2:0.12932231 3:0.2178595 4:0.4979294 5:0.62841958 6:0.63501845 7:0.56254272 8:0.40661066 9:0.88966614 10:1.2235538 11:1.3473728 12:2.1383404 13:2.5353147 14:4.3934475 15:5.9862387 16:5.4765891 17:5.5202622 18:3.6729783 19:3.1309191 20:3.5748251 
0.8009560830061655 1:0.025152535 2:0.035820125 3:0.12988899 4:0.28388589 5:0.31601036 6:0.70009187 7:0.53480563 8:0.51831722 9:0.87793802 10:1.6109456 11:1.5955484 12:2.1676594 13:4.9557463 14:14.285271 15:16.504088 16:8.0824139 17:6.0732535 18:4.4373399 19:4.7470606 20:5.2250544 
0.7882905722231036 1:0.01356596 2:0.031578699 3:0.055637724 4:0.20235718 5:0.46019163 6:0.36623811 7:0.5418304 8:0.71369045 9:0.94633213 10:0.67229525 11:0.47067915 12:1.2834536 13:3.8711461 14:27.331545 15:18.735385 16:10.949403 17:8.6169581 18:6.136919 19:5.1231231 20:5.0150823 
0.5489432609759836 1:0.0025310111 2:0.024171359 3:0.092276931 4:0.12957129 5:0.11588527 6:0.18089257 7:0.28474739 8:0.37231976 9:0.68141522 10:0.4402646 11:0.64684393 12:1.0095463 13:4.3700355 14:12.644983 15:12.486716 16:8.2147878 17:6.7957577 18:6.2107773 19:5.2908348 20:6.0110893 
1 1:0.0035278611 2:0.033574758 3:0.039239147 4:0.11366218 5:0.26759937 6:0.28638694 7:0.39147099 8:0.26758807 9:0.43315264 10:0.68094512 11:0.64924363 12:1.0092003 13:4.2530875 14:18.854729 15:18.548208 16:11.200807 17:10.181311 18:7.2545824 19:6.5719259 20:6.0923209 
0.4739723899200528 1:0.0071641644 2:0.033419788 3:0.097947827 4:0.25844606 5:0.39617173 6:0.3889542 7:0.74071035 8:0.62670029 9:0.57035338 10:0.89066739 11:0.78457447 12:1.9545095 13:5.1690952 14:11.279802 15:28.572682 16:25.196456 17:16.135487 18:10.330297 19:9.0025188 20:7.8719464 
0.448926235366004 1:0.010928298 2:0.04773413 3:0.22855525 4:0.27568107 5:0.30341075 6:0.35614863 7:0.81569341 8:0.92604189 9:0.65388183 10:2.2761867 11:1.1557255 12:3.363264 13:5.4619456 14:15.002208 15:20.575606 16:16.891793 17:13.22024 18:9.4790553 19:6.8699708 20:6.3051471 
1 1:0.065774389 2:0.17871655 3:0.22430353 4:0.67428569 5:0.74000628 6:0.70510494 7:0.60300255 8:0.87062154 9:0.81089461 10:1.7598989 11:1.5308762 12:2.2790691 13:3.4247915 14:6.5333011 15:9.1604128 16:7.346376 17:4.6056246 18:3.3413137 19:2.4803164 20:1.7342996 
0.8426964750753927 1:0.34359824 2:1.4509581 3:3.5659416 4:8.4458862 5:6.1249094 6:4.5954805 7:2.583417 8:1.5479433 9:2.5502888 10:7.4924247 11:3.0127918 12:4.4033352 13:4.4494214 14:7.7555738 15:11.151055 16:3.2886811 17:0.7310627 18:0.41045517 19:0.48591974 20:0.33498119 
-0.06891642166293094 1:0.3063137 2:1.7884637 3:4.2613549 4:12.383595 5:9.7778709 6:6.8728626 7:3.7934905 8:2.5628518 9:3.8013655 10:10.159703 11:4.0296905 12:4.1846259 13:5.1003983 14:5.8599897 15:11.697908 16:5.8800403 17:3.1412461 18:3.4927896 19:3.2013987 20:2.5680398 
0.3775757778158561 1:0.034581384 2:0.068800396 3:0.056360599 4:0.11078525 5:0.21548984 6:0.24531922 7:0.22819669 8:0.24502943 9:0.49628526 10:0.48404022 11:0.35074413 12:1.0804462 13:3.4616585 14:8.7250829 15:18.735356 16:11.622777 17:11.755707 18:6.9360862 19:5.0274898 20:5.8074212 
0.4540276259399625 1:0.025546063 2:0.073295519 3:0.17390553 4:0.43789562 5:0.81185753 6:1.1477534 7:1.1426011 8:1.0615289 9:2.9049509 10:2.715497 11:1.693203 12:3.3252581 13:5.1505933 14:17.718517 15:24.858902 16:15.027482 17:12.385243 18:8.0199164 19:7.7635005 20:6.0496527 
1 1:0.046164142 2:0.13718382 3:0.24770829 4:0.49478174 5:0.95124848 6:1.1254099 7:2.030614 8:2.7603572 9:3.5153107 10:1.2977587 11:1.1887594 12:1.9075847 13:3.0427967 14:5.3234761 15:7.2881741 16:6.3646243 17:6.7249804 18:4.5609962 19:3.6843115 20:3.0181552 
1 1:0.039726546 2:0.061821234 3:0.1680488 4:0.33314376 5:0.55646574 6:0.46027926 7:0.71501257 8:1.8036472 9:2.3666982 10:1.9802231 11:0.9576672 12:0.68494829 13:0.65300397 14:2.4914555 15:1.6560864 16:1.129597 17:0.85500265 18:0.64125091 19:0.55309644 20:0.50441464 
-0.01092569915639689 1:0.28521592 2:1.6444315 3:5.0688809 4:7.811974 5:3.2066858 6:1.7673702 7:1.1310923 8:1.2376062 9:3.1747339 10:5.1657737 11:4.9748528 12:4.4313618 13:1.7060845 14:4.9600341 15:6.554609 16:1.0820212 17:0.16169527 18:0.11462784 19:0.12652517 20:0.19385855 
-0.2023932520981632 1:0.24576926 2:0.74921381 3:1.4791657 4:1.7308739 5:0.53338261 6:0.59162213 7:0.68088493 8:0.54836887 9:1.0387761 10:4.1599502 11:3.2509139 12:3.5886375 13:4.082554 14:8.1676189 15:10.317847 16:4.7635595 17:4.291638 18:2.8342275 19:2.4338464 20:2.0923528 
0.4445656167604772 1:0.033220686 2:0.0965135 3:0.14978795 4:0.30868999 5:0.54406821 6:0.46936576 7:0.60941735 8:0.54317675 9:0.68033135 10:4.0204952 11:3.3691248 12:2.4899451 13:6.0977614 14:18.796371 15:24.184349 16:18.068841 17:12.023747 18:8.3136895 19:5.7294134 20:6.555661 
0.7090129439168865 1:0.013166288 2:0.086027116 3:0.245717 4:0.43885958 5:0.75525055 6:0.63707697 7:0.87975575 8:0.54522903 9:1.2366747 10:2.9687007 11:1.9836333 12:3.7898406 13:3.985625 14:19.235691 15:40.483634 16:30.435761 17:16.037589 18:13.451985 19:8.9694024 20:9.6449881 
0.2675009637849252 1:0.044230853 2:0.12978092 3:0.17910303 4:0.46066338 5:0.6013969 6:0.82594142 7:1.2498622 8:1.2739897 9:2.2366595 10:3.6332859 11:3.4706236 12:4.4688289 13:5.1738958 14:12.887108 15:34.963028 16:22.860013 17:16.41024 18:13.33715 19:9.4336928 20:9.1443118 
0.475477774248913 1:0.024147648 2:0.094481779 3:0.27540472 4:0.44087905 5:0.89357822 6:0.98194516 7:1.6477201 8:1.8620482 9:1.4386458 10:3.1936355 11:2.7647999 12:3.3999238 13:3.4571897 14:7.6984324 15:24.530509 16:14.928474 17:10.892923 18:7.3875843 19:5.2819147 20:9.7767807 
0.2696629922244258 1:0.0057375648 2:0.030175057 3:0.10821881 4:0.22089172 5:0.37421314 6:0.54833588 7:0.68004244 8:0.49145369 9:0.55466882 10:1.188206 11:1.2427866 12:1.9052961 13:3.6350372 14:11.412938 15:21.602764 16:14.484396 17:14.071586 18:6.6910448 19:5.1673648 20:6.1752839 
1 1:0.0065601503 2:0.0062789323 3:0.018496217 4:0.021186435 5:0.020959336 6:0.046191193 7:0.047928559 8:0.053581353 9:0.055730236 10:0.11663246 11:0.18051363 12:0.26947921 13:0.84001442 14:2.543326 15:2.9326627 16:1.7627504 17:1.5182953 18:0.98881908 19:0.86568383 20:0.73853249 
-0.2205993084622185 1:0.060596505 2:0.11029309 3:0.17642988 4:0.73592326 5:0.86356534 6:0.88023124 7:1.1240788 8:1.0598579 9:1.5063404 10:2.4931763 11:2.5323216 12:3.554187 13:8.0049577 14:13.261673 15:14.522634 16:6.5020051 17:4.6271634 18:3.7022227 19:2.9291935 20:2.2927508 
-0.03857022039815432 1:0.34469583 2:1.5250773 3:2.5601049 4:9.3651784 5:15.304046 6:7.3206624 7:5.7780693 8:7.5251244 9:13.041457 10:5.3887456 11:3.6792652 12:5.4307839 13:3.9491245 14:5.7683548 15:9.558161 16:3.2730997 17:1.737914 18:1.600215 19:1.6381158 20:1.7110351 
-0.0662049267000597 1:0.33860952 2:1.7986374 3:4.0294651 4:17.806924 5:43.868094 6:22.273645 7:12.676477 8:21.812155 9:23.551974 10:7.4454028 11:6.349712 12:6.0640153 13:4.0413239 14:6.1727288 15:11.312382 16:5.6635051 17:1.0335172 18:0.25187905 19:0.79132313 20:0.91452334 
-0.06246814562791315 1:0.31904655 2:1.8586615 3:4.2282234 4:16.315802 5:45.607026 6:23.875725 7:13.481293 8:27.392954 9:17.430185 10:5.285479 11:5.209682 12:4.2625484 13:3.3191852 14:6.1745501 15:7.3447139 16:2.5145025 17:1.0825725 18:0.70799871 19:0.66642503 20:1.0090474 
-0.06619060087420003 1:0.32868008 2:1.8713923 3:3.9659555 4:13.99788 5:43.710024 6:24.969983 7:19.151611 8:29.231783 9:9.7193081 10:3.7637146 11:4.904649 12:3.7552754 13:3.4064726 14:6.5742913 15:5.4195866 16:1.6580822 17:0.51711885 18:0.16769069 19:0.15796626 20:0.27113951 
-0.05747851044204717 1:0.32616503 2:1.829815 3:4.010475 4:14.638036 5:51.449636 6:29.664738 7:25.468256 8:43.758816 9:13.053986 10:5.7767036 11:7.6776061 12:3.7451623 13:3.5133775 14:7.43971 15:5.0568084 16:1.1497614 17:0.29618855 18:0.16587372 19:0.1843755 20:0.40737339 
-0.04434678366231769 1:0.3248294 2:1.8081053 3:3.9031524 4:14.286819 5:48.617839 6:29.276696 7:24.587626 8:41.11494 9:10.939668 10:4.7454604 11:6.4537049 12:2.3236424 13:2.6979631 14:6.5732981 15:3.6100731 16:1.1421946 17:0.45742236 18:0.16642954 19:0.17942303 20:0.33560288 
-0.05976357845128825 1:0.31766227 2:1.8030307 3:3.8644672 4:14.251408 5:48.81546 6:25.5025 7:21.4663 8:37.391213 9:11.786231 10:5.9693723 11:5.8146341 12:1.7530826 13:2.914163 14:7.5360873 15:3.5442308 16:1.0853305 17:0.24535589 18:0.17212475 19:0.1294771 20:0.47640244 
-0.06261466842487995 1:0.30478245 2:1.7620834 3:3.7315536 4:13.532357 5:42.866015 6:20.832915 7:14.938564 8:23.347841 9:9.2315729 10:5.4866738 11:4.9642782 12:1.007201 13:1.2453137 14:3.5058613 15:2.0443094 16:0.71835545 17:0.22860768 18:0.13919834 19:0.11624441 20:0.32417883 
-0.06524808783188227 1:0.28502549 2:1.6670416 3:3.5377472 4:12.788699 5:38.214991 6:16.798336 7:12.288317 8:18.814109 9:11.276248 10:7.3650454 11:3.943782 12:0.8660243 13:0.94257151 14:3.0972099 15:1.471652 16:0.53246846 17:0.21265888 18:0.1591435 19:0.12373034 20:0.42018745 
-0.03525239614848773 1:0.27535001 2:1.5523475 3:2.9768065 4:11.12648 5:25.144484 6:7.8655915 7:4.7612487 8:6.8981048 9:9.6684078 10:9.3909207 11:3.4510163 12:0.74434395 13:1.1063211 14:2.1198175 15:0.74254568 16:0.28483831 17:0.19407092 18:0.12829132 19:0.13325107 20:0.57461236 
-0.03330851238942985 1:0.30054419 2:1.5563097 3:2.9767392 4:9.6154185 5:10.622912 6:2.8426694 7:2.9776935 8:10.377516 9:16.994419 10:9.8465882 11:1.9463255 12:0.35485318 13:0.89504523 14:0.89957064 15:0.30987988 16:0.27708278 17:0.16269521 18:0.11680418 19:0.12585645 20:0.37302966 
-0.06286264403504596 1:0.20769114 2:1.0004028 3:1.8962893 4:5.4107076 5:3.2641782 6:1.3153474 7:1.4289524 8:1.7559682 9:3.5289218 10:3.449857 11:1.3527074 12:1.586922 13:2.2655021 14:1.4554875 15:1.6975469 16:0.66628575 17:0.22105515 18:0.12037021 19:0.2298178 20:0.1311849 
-0.7854102019827378 1:0.0073251479 2:0.044023228 3:0.11346057 4:0.17319163 5:0.26861941 6:0.21036183 7:0.54142878 8:0.45022047 9:0.60922466 10:0.58023706 11:0.34528875 12:0.59506424 13:0.94393641 14:1.9299078 15:5.78141 16:2.4384963 17:1.2982998 18:0.75120499 19:0.56529881 20:0.64611668 
0.838417359184656 1:0.012663502 2:0.059670875 3:0.14137789 4:0.33071041 5:0.82487495 6:0.6194895 7:1.0038377 8:0.92397628 9:1.3613686 10:1.1332864 11:0.89102323 12:1.0140832 13:2.5012923 14:12.380298 15:20.36308 16:9.0707026 17:5.018918 18:3.9208848 19:2.3732377 20:3.205939 
0.5740141701144561 1:0.0093356252 2:0.063254223 3:0.20167989 4:0.31382662 5:0.65461877 6:0.6058734 7:0.92048859 8:1.0677078 9:1.3871045 10:1.4238611 11:2.2589737 12:2.5271301 13:3.9396272 14:9.5492012 15:26.883375 16:15.494304 17:8.5330812 18:4.8031444 19:3.5092102 20:4.1250505 
0.7155138431955681 1:0.015144506 2:0.11064573 3:0.17737881 4:0.58243089 5:0.59430383 6:0.52258389 7:1.5357875 8:1.437584 9:2.9022648 10:1.8750887 11:2.0209337 12:2.6130477 13:3.2971334 14:9.371533 15:16.851376 16:13.873595 17:10.372252 18:7.5935197 19:7.0864136 20:5.1180289 
0.4494072134786644 1:0.039527741 2:0.081407911 3:0.24191045 4:0.48571512 5:0.87746163 6:1.2692129 7:0.81735035 8:0.98947053 9:2.7214904 10:2.0014547 11:1.7382444 12:3.6840556 13:3.1206538 14:11.796362 15:19.248327 16:13.406615 17:10.920518 18:9.0804378 19:7.887652 20:6.8808522 
0.7161883238927939 1:0.091012839 2:0.13616456 3:0.2262539 4:0.74896455 5:1.1486502 6:0.7740723 7:0.52790638 8:1.3591847 9:5.6576316 10:2.9833871 11:2.2406807 12:1.8208828 13:0.84165707 14:3.5563529 15:8.3403165 16:5.5409538 17:4.1782055 18:3.7992882 19:1.9854077 20:2.1325459 
1 1:0.0076207551 2:0.0055944276 3:0.011537106 4:0.019363829 5:0.050242415 6:0.042509119 7:0.062594216 8:0.13044342 9:0.39769118 10:0.17207762 11:0.050714422 12:0.06142955 13:0.038492861 14:0.13584576 15:0.2072915 16:0.16450441 17:0.1315214 18:0.12749786 19:0.12072094 20:0.13725273 
-0.06920501724905156 1:0.56697187 2:2.6531266 3:6.9395463 4:21.680646 5:25.983422 6:13.59006 7:10.294939 8:23.47661 9:10.996096 10:3.5316216 11:3.6828739 12:5.1813612 13:4.8591344 14:7.7942209 15:15.751529 16:9.4458467 17:1.4214095 18:1.0600153 19:1.4015272 20:1.2199064 
-0.06536684035206233 1:0.57373868 2:2.7723437 3:7.5124754 4:29.522682 5:45.5004 6:27.34531 7:24.42892 8:24.29222 9:5.373011 10:2.4427791 11:2.016263 12:4.9021133 13:6.3269817 14:5.5384682 15:13.52119 16:9.4900406 17:1.3197474 18:0.93901373 19:1.2691454 20:0.91811466 
-0.04474037264639764 1:0.51738097 2:2.7450196 3:7.1013073 4:30.85129 5:36.046946 6:32.016428 7:34.042759 8:10.718986 9:2.4919401 10:1.2868936 11:1.1314572 12:1.9437691 13:9.9623996 14:7.4107401 15:10.586487 16:7.7562222 17:0.84223578 18:0.67188335 19:1.7299794 20:1.4066034 
-0.05193075146811818 1:0.47059224 2:2.6855416 3:6.743556 4:31.812708 5:34.707143 6:32.744983 7:36.410217 8:8.2479143 9:2.4730927 10:1.3150928 11:1.1356867 12:1.7473744 13:8.6135533 14:7.0405914 15:10.192549 16:6.3829009 17:0.89650781 18:0.93712122 19:1.4501956 20:1.2470143 
-0.06288595306000561 1:0.49145782 2:2.617053 3:6.5557482 4:30.00795 5:34.907559 6:24.921378 7:33.99104 8:16.523744 9:3.3811955 10:1.5662935 11:1.2682001 12:1.9844176 13:7.6628781 14:5.8118662 15:7.4078041 16:4.1184902 17:1.3993329 18:0.63810688 19:1.5315672 20:1.6374671 
-0.06906670669598239 1:0.51089658 2:2.747249 3:6.4980579 4:26.645061 5:49.746857 6:26.659249 7:28.289139 8:38.20378 9:9.7202625 10:2.820629 11:2.2621365 12:4.0566678 13:10.099738 14:6.230793 15:7.6792768 16:6.8178006 17:1.8883289 18:0.57734549 19:2.4894576 20:2.4370674 
-0.06324544907644403 1:0.57404111 2:2.9848384 3:6.9818932 4:21.028946 5:83.481729 6:58.932919 7:26.943253 8:45.899136 9:34.336969 10:7.9210959 11:4.6897091 12:6.8967316 13:7.0920694 14:8.4363356 15:11.536383 16:8.8410398 17:2.8112585 18:0.73021503 19:1.6727055 20:1.9023073 
-0.06319632444108601 1:0.57710143 2:3.171297 3:7.3470459 4:18.028285 5:89.855894 6:88.524771 7:27.954402 8:30.138394 9:51.150771 10:13.805525 11:7.1022025 12:15.618418 13:10.303921 14:8.4979825 15:9.4040607 16:5.217201 17:2.0141824 18:0.63880458 19:1.4912768 20:1.6994654 
-0.0681964074292048 1:0.56799055 2:3.1372204 3:7.4197437 4:17.037042 5:90.856259 6:105.22799 7:30.069788 8:33.819319 9:79.509099 10:28.451525 11:12.718062 12:20.414627 13:10.149371 14:12.920154 15:11.947058 16:8.1273084 17:1.9250857 18:0.58327278 19:2.1640564 20:2.0779157 
-0.0631147062116636 1:0.5479846 2:2.890453 3:7.3212262 4:14.719304 5:83.653539 6:117.13398 7:38.638444 8:25.103981 9:71.246798 10:31.538998 11:15.625639 12:15.910059 13:9.4803328 14:15.132863 15:14.769758 16:7.4974685 17:2.2225766 18:0.71773594 19:2.7546927 20:2.3421875 
-0.06560412212763131 1:0.52613459 2:2.6971902 3:7.3788462 4:14.642487 5:82.033526 6:117.78547 7:48.543917 8:30.070684 9:78.379176 10:31.762201 11:14.335905 12:16.609493 13:18.253593 14:16.513602 15:12.850852 16:8.7814099 17:3.1545405 18:0.78951859 19:2.170618 20:3.3010695 
-0.06311287918763299 1:0.52392152 2:2.5946223 3:7.5693882 4:15.836504 5:82.773711 6:106.52409 7:52.958522 8:33.400092 9:80.476898 10:33.855727 11:11.05377 12:15.021478 13:25.370326 14:12.629082 15:11.776221 16:10.250666 17:3.8317065 18:0.72569911 19:2.2632939 20:2.3735376 
-0.06306192665067784 1:0.60988783 2:2.6632713 3:7.2954587 4:17.399746 5:76.948771 6:77.824365 7:39.261786 8:29.601931 9:53.427295 10:22.412211 11:8.7844956 12:13.177814 13:24.874392 14:8.776017 15:9.0235002 16:12.365246 17:3.4979758 18:1.1974681 19:1.9946661 20:2.2265286 
-0.06946549783276502 1:0.77954132 2:2.7489012 3:5.0853782 4:9.7539065 5:23.498338 6:23.069087 7:17.902023 8:17.473007 9:24.945361 10:11.566608 11:4.4184316 12:7.8283259 13:21.917894 14:5.8184596 15:10.880393 16:22.224479 17:6.8563292 18:0.97246898 19:3.0072216 20:5.3332751 
-0.03773034538282034 1:0.53811603 2:1.4142365 3:1.0832169 4:3.1498914 5:6.4481029 6:4.8610973 7:3.6876107 8:2.5720707 9:3.0495596 10:1.9900883 11:3.0037 12:1.6737324 13:5.2232423 14:4.7144146 15:9.625676 16:15.489234 17:8.9354193 18:5.9576311 19:3.7590895 20:3.9329425 
0.7185405885190763 1:0.05961995 2:0.17396116 3:0.21968745 4:0.53146326 5:0.91235154 6:0.66605212 7:1.1931014 8:1.4488005 9:2.1393466 10:2.8727054 11:2.4078335 12:2.715006 13:5.3049891 14:6.2727691 15:31.530251 16:38.78121 17:19.63145 18:15.133767 19:12.966218 20:12.750086 
0.7647583071883852 1:0.017955042 2:0.052847827 3:0.11792828 4:0.25285288 5:0.30190555 6:0.24979298 7:0.50518316 8:0.47896151 9:0.87054499 10:0.90132171 11:0.72541483 12:1.0865324 13:3.2232548 14:6.4693996 15:22.231323 16:27.060088 17:12.963193 18:11.400065 19:10.463676 20:10.077003 
1 1:0.0092600801 2:0.019545233 3:0.024579112 4:0.037015443 5:0.070878362 6:0.061306801 7:0.074116103 8:0.11071172 9:0.18872296 10:0.14876786 11:0.167582 12:0.36178652 13:1.02532 14:2.4618966 15:4.9219483 16:3.9681577 17:4.2078052 18:2.5895734 19:2.5787085 20:1.9652172 
-0.2110574228617409 1:0.054538714 2:0.12742533 3:0.26856317 4:1.0274176 5:2.5629046 6:2.0090057 7:0.82720378 8:1.9765886 9:1.7346679 10:2.3073649 11:1.349014 12:1.1823556 13:2.8490489 14:6.7861603 15:18.77676 16:17.94422 17:14.8352 18:9.3650963 19:7.9831903 20:9.4705904 
-0.2837455163752146 1:0.20098598 2:0.7491899 3:1.0757516 4:2.5223427 5:3.1144554 6:2.1553983 7:1.848291 8:2.149888 9:2.8940182 10:5.0068637 11:2.6710025 12:2.7580612 13:4.9792911 14:4.7977132 15:11.784191 16:13.217177 17:10.256247 18:7.4084731 19:6.0350013 20:5.8282241 
-0.06101754685458764 1:0.58322105 2:2.6803731 3:9.0798664 4:18.533757 5:10.89497 6:8.0938863 7:5.5066749 8:3.9421091 9:7.5923464 10:21.633975 11:12.057354 12:12.411217 13:10.827867 14:6.2150463 15:15.855933 16:15.021377 17:2.3159414 18:0.80132129 19:2.0169523 20:2.5821381 
-0.04106880585175494 1:0.37054911 2:2.0049026 3:7.321561 4:13.640246 5:4.7172293 6:4.3992902 7:2.4890389 8:1.8431922 9:3.3816553 10:12.707205 11:14.009359 12:12.094734 13:4.9481122 14:3.3712639 15:9.5644831 16:8.6523278 17:0.75459452 18:0.36667748 19:0.51852037 20:0.69410768 
-0.06516850196408969 1:0.30309412 2:1.5440548 3:3.5063781 4:10.673007 5:24.382599 6:10.577472 7:5.4787544 8:3.7584845 9:5.3584915 10:16.678374 11:12.3267 12:8.9287052 13:12.790595 14:12.531108 15:23.106011 16:7.8583303 17:0.88112759 18:0.14353898 19:0.40060138 20:0.62886798 
-0.0649423482960321 1:0.42824666 2:2.2372322 3:5.3980303 4:15.828801 5:46.323639 6:25.200227 7:11.820026 8:7.3895384 9:9.4585854 10:31.824858 11:17.709195 12:9.7355746 13:13.318664 14:13.799154 15:17.399306 16:5.8440172 17:1.2498169 18:0.20268338 19:0.59791473 20:1.4062877 
-0.0630503377738247 1:0.52037212 2:2.7439469 3:6.869645 4:16.871802 5:72.914452 6:56.053231 7:23.332728 8:12.230101 9:17.830787 10:44.246974 11:19.820497 12:10.606383 13:16.548222 14:23.091364 15:24.858602 16:9.6462788 17:1.7820333 18:0.29144255 19:0.66973934 20:1.3424785 
-0.06304707665043059 1:0.5538608 2:2.9679296 3:7.1958862 4:14.559228 5:81.163537 6:94.95486 7:33.722572 8:15.772111 9:31.801751 10:62.5945 11:20.185591 12:12.493402 13:15.953215 14:22.067693 15:21.48513 16:7.4415192 17:2.2335847 18:0.34282916 19:0.73946971 20:1.4949976 
-0.06302258773652898 1:0.56685431 2:2.8843936 3:6.8073944 4:13.435436 5:74.295845 6:106.51846 7:24.989556 8:18.259012 9:43.035987 10:46.653127 11:18.726414 12:14.77093 13:12.09144 14:15.297318 15:15.031561 16:6.9239803 17:2.3630641 18:0.31950306 19:1.0969022 20:1.916222 
-0.06284095213482231 1:0.56622855 2:2.8729453 3:6.9713739 4:14.790927 5:76.353421 6:104.86894 7:23.593483 8:25.583319 9:68.874132 10:43.947761 11:18.716617 12:23.424435 13:16.509054 14:23.262556 15:21.014001 16:8.367939 17:1.999914 18:0.50810787 19:1.8972224 20:1.5738275 
-0.06479880307846177 1:0.5411064 2:2.9707556 3:7.5080702 4:22.37462 5:77.647067 6:68.856975 7:24.587941 8:24.787996 9:52.222854 10:22.889938 11:12.258557 12:15.620252 13:8.1494936 14:8.9575888 15:8.4523086 16:3.1129484 17:0.76181907 18:0.21307268 19:0.78338847 20:1.7238579 
-0.01539351914878842 1:0.071962567 2:0.099768182 3:0.35090723 4:0.95811175 5:2.6411011 6:1.4906007 7:2.1799984 8:2.7268496 9:1.5555698 10:2.6583054 11:5.180493 12:9.8485877 13:14.831655 14:11.080846 15:5.9863211 16:3.5201521 17:3.7467663 18:2.6547902 19:2.0090166 20:1.6420526 
-0.1193759771385622 1:0.29795058 2:1.5385998 3:3.9247817 4:6.2031597 5:2.6896096 6:1.8814261 7:2.0723124 8:1.8587119 9:3.8208027 10:6.7206792 11:2.2166369 12:3.5484385 13:8.0035373 14:7.0312423 15:9.2364108 16:5.0648705 17:2.6409171 18:1.3663278 19:0.89988196 20:0.8467844 
-0.02793555934781373 1:0.04084818 2:0.098865482 3:0.25523679 4:0.42832829 5:1.0637489 6:1.323707 7:2.5729601 8:2.499754 9:1.0133171 10:2.9609925 11:5.1619625 12:3.0874367 13:10.925001 14:16.807856 15:15.032114 16:9.6566298 17:5.3282561 18:2.5059687 19:2.0642224 20:1.5164719 
-0.2241652778030907 1:0.55283627 2:2.0743952 3:5.5607071 4:10.679918 5:3.3876182 6:2.6982368 7:2.3791484 8:2.30642 9:2.576582 10:6.0858119 11:5.2462815 12:4.5297127 13:6.0500738 14:5.0665558 15:9.5294667 16:4.303303 17:0.68456074 18:0.32553797 19:0.47643084 20:0.30686017 
-0.07401679995152356 1:0.5238927 2:2.6271193 3:9.474075 4:16.22663 5:6.4521275 6:4.0316433 7:2.9548853 8:2.5329117 9:4.0840805 10:11.491476 11:9.0645956 12:8.6394036 13:8.089985 14:7.4752128 15:13.608594 16:6.0378452 17:0.44032172 18:0.16352898 19:0.63267088 20:0.67908823 
-0.01426014045734783 1:0.4620045 2:2.4131451 3:8.7466836 4:14.78083 5:7.5139694 6:4.0484801 7:2.6052731 8:2.3022243 9:3.2673897 10:8.8638479 11:7.7053964 12:8.3135924 13:5.653452 14:7.130893 15:10.374496 16:3.3733259 17:0.39952756 18:0.2049303 19:0.80805131 20:0.82613988 
-0.005122193702771546 1:0.43936702 2:2.3531751 3:8.3449459 4:14.934586 5:7.2989633 6:3.8726736 7:2.5858021 8:2.4999908 9:3.4898303 10:8.0378046 11:5.6046581 12:6.1457709 13:3.2568755 14:5.1990195 15:9.3636054 16:3.2256161 17:0.49432706 18:0.24002399 19:0.82907957 20:0.86351642 
-0.01946679489868497 1:0.43470009 2:2.2981304 3:8.3213494 4:14.575269 5:7.0486403 6:3.8068511 7:2.7792711 8:2.9066777 9:4.5595114 10:10.517891 11:5.7164963 12:4.5338397 13:1.7978531 14:3.7766923 15:8.5370574 16:2.7561678 17:0.43546897 18:0.31551802 19:0.74614554 20:0.94394287 
-0.01629152746067228 1:0.3912246 2:2.157435 3:7.9331672 4:13.139353 5:6.6476258 6:3.6616292 7:2.3516514 8:2.9130927 9:6.3352154 10:9.978334 11:5.6963553 12:4.8755128 13:1.5495022 14:2.1686774 15:7.5933094 16:3.3979483 17:0.33125733 18:0.15661187 19:0.47121853 20:1.0816832 
-0.03052621518968512 1:0.36380758 2:2.1356719 3:8.6354863 4:10.689642 5:5.2752929 6:3.3486277 7:2.3228413 8:2.7578566 9:7.1970557 10:12.432503 11:6.308318 12:6.240113 13:2.6990681 14:2.9324928 15:2.6381174 16:0.85029756 17:0.19642974 18:0.16075479 19:0.56635214 20:0.63811323 
-0.03155206959145836 1:0.18461229 2:0.78884165 3:2.6072827 4:4.6748204 5:2.2987985 6:1.1886346 7:0.87429782 8:0.71991289 9:1.3468418 10:4.3805369 11:5.7673464 12:6.2294727 13:7.9976763 14:6.0092574 15:20.285857 16:6.8541428 17:0.45597584 18:0.16099166 19:0.41501749 20:0.36054628 
-0.02366904013532455 1:0.30172074 2:1.6777063 3:5.114243 4:13.420839 5:4.8668155 6:2.6141425 7:1.3309531 8:1.0890118 9:1.5720866 10:6.0233484 11:4.3475744 12:7.0326153 13:9.2613369 14:7.6709522 15:14.193508 16:5.4204681 17:0.45036549 18:0.13443758 19:0.51583011 20:0.39958335 
-0.03923260730444868 1:0.37891652 2:2.0396069 3:5.9052174 4:18.844825 5:5.715593 6:3.469864 7:1.4819812 8:1.5262597 9:2.1839776 10:5.771301 11:2.8814608 12:7.7877571 13:12.608937 14:10.672095 15:16.636143 16:6.7981383 17:0.50370856 18:0.17919618 19:0.44464724 20:0.25750419 
-0.04507508622072856 1:0.48027646 2:2.1524347 3:5.6774351 4:16.839999 5:4.3187131 6:2.7011034 7:2.3265634 8:1.8147711 9:4.3045763 10:7.4812671 11:3.6320429 12:7.3940337 13:10.824817 14:9.6738056 15:15.503097 16:7.0505793 17:0.57746862 18:0.29282394 19:0.52135152 20:0.3901659 
-0.07791726996510673 1:0.47640431 2:2.0354906 3:5.4780335 4:9.834254 5:2.8959472 6:1.9146318 7:1.8367595 8:1.6817778 9:3.6314959 10:3.9621956 11:1.7609744 12:3.8439397 13:6.4066839 14:5.1009126 15:8.3560761 16:4.6885755 17:1.2760323 18:0.97265169 19:0.85232374 20:0.83944992 
-0.1660091495240133 1:0.40412652 2:1.5155059 3:4.3299735 4:6.6638104 5:2.0338537 6:2.7865069 7:1.7492765 8:1.5402733 9:4.3547322 10:2.7760251 11:1.350534 12:1.7839993 13:4.1694409 14:5.9750643 15:11.284789 16:7.8279347 17:3.5694097 18:2.1511994 19:1.9497368 20:2.520828 
-0.0718396047464976 1:0.043960395 2:0.14584604 3:0.21723035 4:0.082253952 5:0.073844418 6:0.034260841 7:0.049052138 8:0.11014625 9:0.11624979 10:0.27079944 11:0.26921942 12:0.42503283 13:1.1144578 14:1.5367981 15:1.219095 16:0.67864555 17:0.41280538 18:0.24999017 19:0.18892551 20:0.21372824 
-0.4153723171737418 1:0.047231347 2:0.15336531 3:0.28000891 4:0.21482924 5:0.26200615 6:0.2662656 7:0.42758621 8:0.43186469 9:0.55066617 10:1.1858652 11:1.5739308 12:1.5501248 13:3.8865691 14:7.3581669 15:4.5606253 16:2.9684938 17:3.5014805 18:2.8116952 19:2.5657328 20:2.3849858 
-0.06220590392895575 1:0.41674761 2:2.4159078 3:7.1001131 4:15.264846 5:7.325609 6:3.999106 7:2.791388 8:2.9362254 9:3.9097833 10:10.898747 11:9.4491156 12:10.435337 13:15.837188 14:19.405323 15:18.287755 16:4.6839297 17:1.4316481 18:1.2566251 19:1.2887402 20:0.93155127 
-0.06559024694893775 1:0.47333338 2:2.7922317 3:8.8855228 4:34.833149 5:18.730349 6:8.8693476 7:6.0606862 8:5.6796089 9:11.409398 10:25.969417 11:11.155311 12:13.644151 13:12.222753 14:12.508235 15:15.361634 16:4.456774 17:0.71025129 18:0.23546106 19:1.2622497 20:0.93852589 
-0.06647822210375963 1:0.4343424 2:2.5595673 3:6.530778 4:34.128476 5:36.847804 6:13.16097 7:8.0136328 8:7.2752604 9:20.150737 10:29.220789 11:7.3522663 12:11.33463 13:10.763619 14:12.642454 15:16.714188 16:4.0382115 17:0.72247583 18:0.22010081 19:1.9327368 20:1.8675977 
-0.06818244237380849 1:0.4446412 2:2.4915356 3:6.6974711 4:24.860004 5:48.779383 6:16.324371 7:12.371186 8:11.290852 9:37.09749 10:31.404161 11:11.468359 12:16.592712 13:13.713056 14:10.420374 15:8.5369023 16:3.2262403 17:0.93018643 18:0.20081673 19:1.5664567 20:2.2105961 
-0.06478264250623855 1:0.45446605 2:2.4543323 3:6.3796829 4:24.647058 5:55.755826 6:18.724551 7:14.527141 8:12.932488 9:43.678125 10:33.048086 11:10.364227 12:14.081661 13:12.670936 14:8.6280576 15:6.8974832 16:2.8473001 17:1.5570223 18:0.18491261 19:1.5797584 20:1.9132937 
-0.06172531682608448 1:0.44843679 2:2.5281638 3:6.4390885 4:25.414517 5:43.90489 6:13.778079 7:10.284541 8:8.5472106 9:28.37745 10:30.369703 11:7.8785193 12:9.4633264 13:10.719539 14:5.5612092 15:5.8240879 16:4.1997969 17:1.4424223 18:0.15805962 19:1.0324381 20:1.416786 
-0.06421881614444648 1:0.4607819 2:2.6099118 3:7.556115 4:27.195221 5:21.259284 6:10.066427 7:6.8179952 8:6.3829769 9:18.958126 10:32.597627 11:10.554346 12:8.241678 13:10.940139 14:7.9913061 15:13.108789 16:5.8229456 17:1.6437044 18:0.13574777 19:1.0659472 20:1.1571376 
-0.0477221619766403 1:0.34399253 2:2.1263278 3:7.0432954 4:16.856142 5:6.4551145 6:4.8443193 7:3.0387442 8:2.658597 9:6.4440535 10:14.075067 11:3.8275412 12:1.8448319 13:5.186242 14:6.3469658 15:5.8890578 16:3.3720865 17:0.692422 18:0.18183959 19:0.51621879 20:0.65281059 
-0.04791452688873534 1:0.27281833 2:1.8734593 3:4.7540377 4:14.988373 5:14.65346 6:7.9197346 7:8.5191244 8:13.494223 9:3.8492291 10:1.3269043 11:1.4584139 12:1.890093 13:2.9128835 14:4.7960022 15:9.8218891 16:3.1625526 17:0.36124079 18:0.16343438 19:0.42585036 20:0.8756859 
-0.06368292967069415 1:0.32111689 2:1.89906 3:4.7177593 4:19.342947 5:32.536417 6:15.55301 7:13.837748 8:27.9228 9:6.9318008 10:2.1815352 11:1.9619357 12:2.1187726 13:3.0555316 14:7.2671036 15:14.868027 16:4.5261416 17:0.80161779 18:0.30116322 19:0.67004446 20:1.2448162 
-0.06461408655814928 1:0.32749039 2:1.974896 3:4.2784275 4:14.673454 5:38.597174 6:19.94097 7:9.4800923 8:23.062951 9:9.807388 10:1.7891437 11:2.1645113 12:2.5246908 13:3.5625539 14:7.8953901 15:10.692066 16:3.7603997 17:0.77578244 18:0.20165537 19:0.44385451 20:0.81783252 
-0.06565513726912169 1:0.3896139 2:2.146381 3:4.2213646 4:12.211681 5:35.009455 6:18.246064 7:9.1199736 8:20.792049 9:20.480817 10:3.099499 11:3.2874958 12:3.9169999 13:4.4354569 14:7.7018314 15:11.298964 16:4.4251803 17:1.566031 18:0.12787824 19:0.52422096 20:1.491135 
-0.06854887661122121 1:0.39363915 2:2.2504626 3:4.84866 4:15.695178 5:39.04667 6:18.416538 7:10.207794 8:14.402157 9:28.18704 10:9.4999817 11:4.7307945 12:5.3059462 13:6.9318007 14:8.9248346 15:17.122271 16:5.9465175 17:1.4501664 18:0.16016435 19:0.35190567 20:0.8475176 
-0.06974411355994417 1:0.44018705 2:2.3661056 3:5.120667 4:19.70643 5:33.199804 6:14.370944 7:8.6324603 8:8.0287921 9:16.479389 10:13.098951 11:4.67813 12:6.4772698 13:6.8042495 14:5.9937615 15:12.633816 16:5.0183852 17:1.5044414 18:0.23361371 19:0.38017062 20:0.71069591 
-0.05198522938970994 1:0.50769983 2:2.1536394 3:3.9439017 4:13.768654 5:12.447927 6:5.8886427 7:4.0278665 8:2.0358291 9:3.5495346 10:6.4513777 11:2.7096263 12:3.5982813 13:4.4351974 14:1.7233019 15:6.4103188 16:8.1093698 17:1.1493992 18:0.17767432 19:0.38013406 20:0.47595644 
-0.271362853312724 1:0.056529967 2:0.099972 3:0.15010283 4:0.38849534 5:0.76808039 6:1.0177563 7:0.93541739 8:0.99527013 9:0.79984553 10:2.4951765 11:2.5187015 12:2.5880291 13:5.266816 14:13.996223 15:28.889003 16:22.790192 17:18.931675 18:8.8807515 19:6.9391189 20:4.9929932 
0.6939258849277667 1:0.021795427 2:0.10656993 3:0.21713358 4:0.28287501 5:0.45942627 6:1.0924755 7:1.580558 8:0.95697588 9:0.90124487 10:2.0731643 11:1.8537832 12:2.3757641 13:5.5853782 14:7.5958181 15:26.658945 16:31.773747 17:16.55641 18:8.4376396 19:6.2987334 20:7.1210195 
0.5983118036949266 1:0.012931352 2:0.093321284 3:0.19753798 4:0.48362871 5:0.59811121 6:1.0399652 7:0.93528823 8:1.2832874 9:1.0749144 10:2.3233641 11:2.0176642 12:3.0568575 13:6.7927711 14:13.110104 15:45.959085 16:33.059808 17:21.850894 18:10.661709 19:8.1436814 20:8.6775354 
0.6497321793467215 1:0.015725344 2:0.053820645 3:0.081344866 4:0.1370126 5:0.18635494 6:0.29284962 7:0.36944493 8:0.69985123 9:0.66926498 10:1.3600465 11:0.67932432 12:1.2238992 13:2.6825736 14:10.083787 15:27.641203 16:17.644052 17:11.452686 18:8.5813505 19:7.0065602 20:6.0314009 
1 1:0.0074032912 2:0.0085011889 3:0.010344789 4:0.039042205 5:0.062287412 6:0.058202279 7:0.053490958 8:0.082178333 9:0.11817306 10:0.14599796 11:0.24534775 12:0.4102524 13:0.85293368 14:3.2238585 15:7.5567797 16:3.7405045 17:2.3037527 18:2.1849799 19:1.5911884 20:1.5834284 
1 1:0.0047221847 2:0.0070433376 3:0.0058249702 4:0.013999671 5:0.021027138 6:0.014495816 7:0.016753246 8:0.03135358 9:0.029641308 10:0.033195293 11:0.039182458 12:0.034827274 13:0.055430915 14:0.086248264 15:0.1628549 16:0.11554579 17:0.099132802 18:0.082000132 19:0.11031742 20:0.10611857 
-0.07287563074500454 1:0.15934175 2:0.38554598 3:0.75087279 4:1.3897221 5:1.7217586 6:2.1246041 7:2.5977671 8:2.2274161 9:1.9871782 10:2.1950054 11:3.3215207 12:2.8437416 13:5.8229166 14:7.5618437 15:11.240414 16:11.239701 17:3.8127182 18:4.3137849 19:2.1478459 20:1.7236178 
-0.01801854699923075 1:0.39325687 2:1.808097 3:3.8713588 4:12.595819 5:15.036015 6:5.8891704 7:3.2447997 8:2.6929341 9:4.0804914 10:12.767039 11:9.6105348 12:9.9821003 13:8.7309586 14:6.6207992 15:6.2612304 16:2.4984681 17:0.7425174 18:0.37384817 19:0.59784639 20:0.36709904 
-0.06489926609898433 1:0.33613273 2:1.8930645 3:4.3151175 4:13.353043 5:29.263119 6:15.213001 7:6.9949868 8:5.6143248 9:8.6201265 10:28.085308 11:19.252074 12:17.799931 13:9.9706067 14:6.8755491 15:6.6680193 16:2.6941068 17:1.1710284 18:0.27473155 19:0.93938839 20:0.50312044 
-0.06207092749293205 1:0.33949146 2:1.8544517 3:3.6816127 4:10.216441 5:22.938168 6:17.256382 7:8.0466577 8:6.3220788 9:6.7719094 10:19.005357 11:13.913257 12:9.5824661 13:6.0142846 14:8.6989021 15:8.9081564 16:2.4285548 17:0.83704767 18:0.24238532 19:0.59961995 20:0.417164 
-0.04631468635420254 1:0.32900776 2:1.9158812 3:3.9189213 4:10.261646 5:25.01129 6:18.908441 7:10.408198 8:7.655827 9:7.9417467 10:17.126759 11:7.3071024 12:4.0084584 13:4.2274462 14:8.319016 15:8.6789604 16:2.0002716 17:0.86615989 18:0.23060162 19:0.67805736 20:0.42558498 
-0.02684030258809746 1:0.34681062 2:1.936009 3:3.9079309 4:10.320663 5:23.612274 6:18.568368 7:9.775225 8:7.524687 9:7.8914736 10:14.524722 11:5.1615505 12:5.4492482 13:4.8899496 14:8.5605428 15:6.4706418 16:1.6215438 17:2.1199233 18:0.34266819 19:0.4238438 20:0.28577082 
-0.03766883366890312 1:0.35906862 2:1.9756771 3:4.056567 4:10.567062 5:23.471676 6:18.804973 7:10.40834 8:8.666166 9:10.778768 10:17.027968 11:4.3200657 12:4.2629908 13:4.4468787 14:7.5409875 15:5.5544343 16:1.8736384 17:1.4516052 18:0.31277572 19:0.33645207 20:0.36059894 
-0.03750742495849613 1:0.33080944 2:1.9633561 3:4.1781183 4:11.282183 5:21.466776 6:16.168209 7:8.8467737 8:6.8429492 9:8.7255924 10:12.641113 11:4.5529982 12:6.3548317 13:4.6946658 14:5.4180443 15:5.7917731 16:2.0838808 17:0.83862766 18:0.28602305 19:0.36182623 20:0.38139424 
-0.05677751675067566 1:0.31310596 2:1.7236063 3:3.808532 4:11.18452 5:17.54824 6:11.814516 7:6.9253776 8:5.1987327 9:8.9938024 10:12.647141 11:4.1908056 12:5.2343222 13:3.6311457 14:3.9511494 15:4.3783681 16:3.0184677 17:1.2739942 18:0.22219261 19:0.23708696 20:0.27868452 
-0.0110019936875133 1:0.41152344 2:2.0524717 3:5.0472746 4:16.61368 5:8.8524181 6:6.8261696 7:3.8496646 8:3.8480781 9:9.5268958 10:11.060778 11:4.7994944 12:2.4083784 13:4.5948105 14:3.1894621 15:1.8324742 16:1.3890258 17:0.66507196 18:0.47577747 19:0.5988963 20:0.67156957 
-0.04877471858058878 1:0.47422361 2:2.3777445 3:6.5461141 4:28.184867 5:13.449139 6:9.0215101 7:5.1348854 8:4.8354361 9:12.606542 10:14.187256 11:7.8077613 12:2.5630267 13:4.7764614 14:5.4004921 15:2.0029084 16:0.63591395 17:0.27818471 18:0.15692678 19:0.18152034 20:0.45395201 
-0.04721491658553394 1:0.44529715 2:2.3300461 3:6.7116653 4:26.57985 5:10.820868 6:8.5464341 7:4.5244364 8:4.7956061 9:13.47648 10:13.772721 11:4.935848 12:1.0322835 13:2.9528223 14:3.7170491 15:1.1829438 16:0.54738093 17:0.28705519 18:0.15691682 19:0.12899078 20:0.21217805 
-0.04224891605985522 1:0.33955942 2:1.7565042 3:5.3084612 4:14.08872 5:4.9237397 6:4.4024593 7:2.6209722 8:3.0013957 9:10.908194 10:17.490271 11:4.2049318 12:0.7303575 13:1.9311907 14:1.8885135 15:1.008678 16:0.38952704 17:0.36364449 18:0.25033186 19:0.17509409 20:0.25552174 
-0.02846464676703989 1:0.25111278 2:1.5409878 3:3.718072 4:13.611074 5:11.337839 6:7.6564848 7:4.2682079 8:4.193972 9:12.595672 10:8.7251351 11:4.3112204 12:2.2252869 13:5.295694 14:5.3320528 15:4.8825279 16:1.7906412 17:0.62536113 18:0.28549043 19:0.32171465 20:0.3528605 
-0.06069334013786686 1:0.36984295 2:2.1743974 3:5.1231495 4:22.296768 5:43.175095 6:19.07998 7:5.8628908 8:4.9995853 9:13.809805 10:8.6073355 11:4.9602117 12:4.1357848 13:9.1435965 14:6.5177284 15:9.7212799 16:4.2505222 17:0.4393816 18:0.14362494 19:0.25550339 20:0.33271241 
-0.05573843262294226 1:0.39300207 2:2.1943379 3:4.7125192 4:15.769826 5:42.819332 6:23.456807 7:8.4488155 8:8.2429741 9:12.676503 10:7.2492096 11:4.02807 12:3.5476714 13:7.5359638 14:8.4970938 15:10.968657 16:4.3037052 17:0.83495773 18:0.1837718 19:0.37647562 20:0.52481776 
-0.06480104626324878 1:0.35286157 2:2.0439452 3:4.4371639 4:13.42988 5:49.498837 6:32.502119 7:11.924797 8:11.319491 9:19.742389 10:5.9809577 11:2.8195413 12:4.1548917 13:8.6184261 14:7.1596846 15:11.779158 16:4.608125 17:1.3466073 18:0.14833165 19:0.63990059 20:1.0678001 
-0.05130810143461164 1:0.37731366 2:2.0199325 3:3.9959022 4:9.9866704 5:38.508854 6:29.386976 7:5.2629245 8:4.3930201 9:13.940928 10:6.1692127 11:4.9293937 12:3.7473817 13:6.0358195 14:4.2508036 15:7.0293967 16:2.6159389 17:1.15991 18:0.22349928 19:0.39101393 20:0.80179864 
-0.04670598975231641 1:0.35737098 2:2.0210023 3:4.0455434 4:10.460515 5:36.352118 6:30.175744 7:5.9903963 8:4.9819673 9:14.722981 10:7.1540116 11:5.0065903 12:3.2694527 13:4.6901922 14:3.0818941 15:4.0522347 16:2.0136994 17:1.6189594 18:0.21553539 19:0.39672583 20:0.76954916 
-0.07006184431823931 1:0.33698413 2:1.9883383 3:4.2293473 4:10.359467 5:49.11666 6:44.723935 7:10.772328 8:9.5125673 9:20.205916 10:7.0584169 11:3.1714904 12:4.2687462 13:5.6142748 14:4.0433576 15:5.978259 16:2.4730682 17:1.4579808 18:0.1655721 19:0.32753798 20:0.67866265 
-0.0631758754076782 1:0.35579614 2:2.0288969 3:4.1283295 4:11.283851 5:40.395847 6:28.093184 7:5.8822323 8:3.8410537 9:6.8906953 10:8.9100132 11:6.0287557 12:6.5021538 13:7.8334216 14:4.8640806 15:5.3579483 16:2.6792949 17:2.004611 18:0.24892647 19:0.54525876 20:0.84020815 
-0.06891890969861184 1:0.35057369 2:2.0209404 3:4.1165028 4:11.855284 5:34.612616 6:19.382749 7:4.0238528 8:2.3918863 9:8.6319665 10:13.324462 11:5.7010612 12:5.3924944 13:7.0408608 14:5.833915 15:6.7149286 16:3.6324263 17:2.2060929 18:0.26850363 19:0.62724158 20:0.70776805 
-0.06378114057180467 1:0.37081212 2:2.059436 3:4.1305872 4:13.548413 5:28.933551 6:14.352618 7:4.3631567 8:3.258767 9:10.398268 10:20.490335 11:7.2463913 12:6.3161139 13:6.6496704 14:5.5485914 15:5.0930192 16:3.2990121 17:1.7531931 18:0.19916077 19:0.5680163 20:0.7830042 
-0.05442921778413213 1:0.33843336 2:2.0434716 3:4.6960504 4:18.530374 5:22.474409 6:9.9769229 7:3.2191976 8:2.0544097 9:3.8836311 10:10.413458 11:6.6185482 12:9.6238712 13:8.4782767 14:6.4318514 15:8.2991935 16:4.6763837 17:1.5032804 18:0.18177824 19:0.67858105 20:0.77121858 
-0.05574143962476851 1:0.37426624 2:2.0957595 3:5.7435169 4:23.073063 5:15.029776 6:7.2257959 7:2.7942292 8:1.4675002 9:2.1215382 10:11.910027 11:9.2253102 12:6.5054513 13:6.1768342 14:5.7710981 15:8.7301728 16:4.1227217 17:1.1024461 18:0.16491199 19:0.4313082 20:0.41799457 
-0.1189718502792644 1:0.35176701 2:2.0371229 3:6.0532466 4:12.079011 5:4.7550291 6:2.5163473 7:1.4806959 8:1.1095656 9:1.9091402 10:7.5521159 11:4.2518076 12:6.4241448 13:4.7961716 14:2.6053487 15:5.601606 16:3.8139959 17:1.1973313 18:0.63284414 19:0.35252216 20:0.33299509 
-0.2369996534980233 1:0.28988902 2:1.4605324 3:4.1164683 4:5.9175541 5:1.870541 6:0.99388709 7:1.2118485 8:1.160092 9:2.2484859 10:5.8056743 11:2.2468851 12:4.2090887 13:3.0426987 14:3.1885944 15:11.144965 16:9.0221712 17:2.380577 18:1.5930246 19:1.4656794 20:1.3382404 
-0.2656556475952411 1:0.14116131 2:0.49377561 3:1.2043567 4:2.2458108 5:1.2252132 6:0.67939822 7:0.63968304 8:0.3380224 9:1.0200068 10:2.2982866 11:1.0327224 12:1.286418 13:1.7471914 14:4.963956 15:15.928507 16:12.482155 17:6.7596885 18:3.9860042 19:3.2433155 20:2.8945878 
-0.2564787070372649 1:0.039638561 2:0.06950779 3:0.11974029 4:0.30702417 5:0.27087117 6:0.51346911 7:0.82815294 8:0.97779486 9:0.89309687 10:1.5579599 11:1.2527615 12:1.0158418 13:2.3562287 14:11.38169 15:22.323461 16:22.499481 17:11.274165 18:7.4541672 19:5.1812112 20:5.683924 
-0.2239627715053221 1:0.011037738 2:0.064511766 3:0.11159295 4:0.25762974 5:0.57261703 6:0.93464749 7:1.0674066 8:0.98079554 9:0.96369366 10:1.3706928 11:1.4350873 12:2.0173312 13:2.4787633 14:8.9607635 15:24.197262 16:26.03881 17:14.637528 18:6.9960753 19:6.7587082 20:6.3962142 
-0.1209220236613758 1:0.0072051891 2:0.033306574 3:0.089784234 4:0.16918563 5:0.37787182 6:0.51577232 7:0.64262104 8:0.58581479 9:0.55405046 10:1.1527762 11:0.72508804 12:1.2335433 13:2.3398525 14:9.0943069 15:37.197772 16:22.855255 17:14.62232 18:7.2693634 19:7.2854287 20:7.0902075 
-0.5556311324505806 1:0.0056111577 2:0.011188731 3:0.048020485 4:0.088053978 5:0.093140108 6:0.22602954 7:0.29756194 8:0.3363663 9:0.26726431 10:0.49938116 11:0.58065511 12:0.62856306 13:1.4192292 14:7.8670878 15:30.393281 16:12.915102 17:8.8645942 18:5.8747431 19:5.0046356 20:6.010919 
-1 1:0.0037834543 2:0.0084247576 3:0.010470995 4:0.02426681 5:0.023577567 6:0.046028582 7:0.046134782 8:0.04909598 9:0.064481363 10:0.054937923 11:0.084474919 12:0.14224404 13:0.32276309 14:1.7634606 15:4.8203412 16:2.4992287 17:1.9118275 18:1.3694276 19:0.9300752 20:1.1493737 
-0.1849491580789848 1:0.15793305 2:0.47819705 3:0.73262294 4:1.0321466 5:1.4274543 6:1.7092189 7:3.2671339 8:2.4868328 9:1.7472119 10:2.9609566 11:4.2654022 12:1.6847066 13:5.7876388 14:4.9085196 15:8.4196641 16:12.067052 17:8.3427901 18:4.992694 19:5.7074651 20:3.9833094 
-0.04862430004463812 1:0.55930789 2:2.31351 3:4.9627008 4:17.003492 5:20.159904 6:9.3090171 7:5.8643578 8:4.1690919 9:5.0329437 10:12.21286 11:11.261888 12:10.54506 13:12.301897 14:6.9272923 15:10.149043 16:5.7659237 17:0.96646512 18:0.21254612 19:0.77025893 20:0.93874042 
-0.06421043066528211 1:0.38070898 2:2.0914068 3:4.9259123 4:22.911772 5:31.739361 6:11.287884 7:6.7004099 8:5.0585073 9:5.2789389 10:12.981362 11:10.743331 12:13.093392 13:15.49946 14:8.3952855 15:11.129205 16:4.9616294 17:1.2882126 18:0.20962213 19:1.4638515 20:1.3145358 
-0.06521031248870149 1:0.3367873 2:1.9465421 3:4.2419109 4:20.248297 5:31.987488 6:12.314158 7:4.7179397 8:3.5205052 9:2.8217653 10:5.9043451 11:7.0057909 12:15.437502 13:18.318446 14:10.771335 15:8.1132342 16:4.0667552 17:1.7003823 18:0.24683749 19:0.8399232 20:0.82515385 
-0.06166485376123981 1:0.32157095 2:1.8484512 3:3.5854378 4:12.243673 5:22.54916 6:7.3792197 7:2.0462948 8:1.7942851 9:6.0295665 10:21.015623 11:11.237322 12:11.463714 13:11.279646 14:10.180964 15:6.654246 16:2.2012553 17:0.95444394 18:0.1862006 19:0.6345639 20:0.74155546 
-0.05351862502992427 1:0.31779395 2:1.7553141 3:3.0567529 4:8.3767774 5:20.425802 6:7.7116467 7:2.621391 8:3.4255482 9:9.2026919 10:19.783277 11:5.0184728 12:10.920266 13:11.256763 14:5.8477908 15:3.9125216 16:2.7626227 17:1.2044252 18:0.16083418 19:0.51410255 20:0.79239419 
-0.04841035140731869 1:0.34635513 2:1.6790936 3:2.4795784 4:6.8652561 5:19.82785 6:11.111423 7:3.547807 8:4.180387 9:11.747489 10:16.67173 11:4.1845146 12:9.0108442 13:9.9959091 14:6.3186095 15:4.6406619 16:3.0852928 17:1.1478226 18:0.1822455 19:0.38865918 20:0.56381577 
-0.04381315621704605 1:0.33563225 2:1.7107774 3:2.7506791 4:7.3917924 5:19.942363 6:12.73156 7:3.835798 8:3.2271804 9:13.77444 10:11.009962 11:4.0336594 12:6.5834821 13:6.3682693 14:4.5933264 15:3.6734931 16:2.0531097 17:0.93822888 18:0.13270312 19:0.24677766 20:0.33352662 
-0.0399742812612963 1:0.26957556 2:1.3725717 3:2.2692348 4:6.2744197 5:17.340749 6:6.8028619 7:1.9994414 8:2.2430658 9:10.379234 10:7.2678365 11:2.7337404 12:6.6664031 13:7.0288359 14:4.7772077 15:5.5874729 16:2.8801747 17:0.94623882 18:0.14610581 19:0.36885362 20:0.38976236 
-0.3507781734656529 1:0.14232078 2:0.16180744 3:0.31597922 4:0.58746453 5:1.6291318 6:1.8063691 7:1.371819 8:1.215464 9:0.99814026 10:1.5710188 11:1.0167246 12:0.81319191 13:1.7342344 14:1.0265702 15:3.1136495 16:4.5565599 17:2.1220963 18:1.4502658 19:1.06723 20:0.85781255 
1 1:0.023156262 2:0.18819786 3:0.23338017 4:0.37568098 5:1.6633653 6:1.4290508 7:1.5413175 8:1.1531117 9:1.5521811 10:2.2774725 11:1.3398861 12:1.4933941 13:2.7201034 14:3.1634274 15:9.6441975 16:12.825966 17:6.0639745 18:3.6949297 19:2.9243068 20:2.1317235 
0.2136727201690079 1:0.01452319 2:0.089352833 3:0.13719842 4:0.31575337 5:0.38984879 6:0.56627545 7:1.3465076 8:0.88685589 9:0.9067155 10:1.6694375 11:1.2319974 12:1.4456932 13:2.3112079 14:4.0737618 15:15.337743 16:18.078074 17:11.556807 18:5.0313232 19:4.3362405 20:5.0602958 
1 1:0.011185284 2:0.025382605 3:0.053585528 4:0.09447751 5:0.14417733 6:0.16398782 7:0.21671749 8:0.18607783 9:0.3826717 10:0.31473615 11:0.30473696 12:0.58972966 13:1.3314991 14:3.2796672 15:9.0297808 16:10.21029 17:6.8410794 18:4.0989578 19:3.3767247 20:4.5016365 
1 1:0.0061575273 2:0.013093676 3:0.018988079 4:0.032481293 5:0.048603964 6:0.039671565 7:0.083266347 8:0.08445454 9:0.12143813 10:0.10807342 11:0.16899018 12:0.30241156 13:0.88638195 14:2.2961643 15:8.731753 16:4.5877458 17:2.3146206 18:1.4151334 19:1.27121 20:1.2136756 
1 1:0.0038105612 2:0.0088841948 3:0.0093214097 4:0.012838349 5:0.019404971 6:0.023228624 7:0.028571191 8:0.031580079 9:0.029942523 10:0.033520331 11:0.05123624 12:0.093430594 13:0.29137762 14:0.70613818 15:1.8819849 16:0.8311744 17:0.38430726 18:0.33388081 19:0.27633366 20:0.20495322 
-0.7886190196150701 1:0.0050766365 2:0.0071119709 3:0.016742463 4:0.015495104 5:0.018237059 6:0.035460643 7:0.047206535 8:0.042478247 9:0.045035595 10:0.079854027 11:0.11253345 12:0.23824099 13:0.7079193 14:1.9890006 15:5.3689366 16:2.6173007 17:1.526921 18:1.1365159 19:0.92081148 20:0.71060383 
0.5177202712323677 1:0.0052163644 2:0.0068455337 3:0.020007946 4:0.02278934 5:0.061707278 6:0.10163904 7:0.11983572 8:0.14588295 9:0.16853426 10:0.28466765 11:0.40793551 12:0.51287749 13:1.2459717 14:3.4372498 15:26.540402 16:14.338533 17:4.8743544 18:4.2270371 19:1.9329909 20:1.8729885 
0.4172408568797751 1:0.0063333744 2:0.006501528 3:0.029923001 4:0.067523377 5:0.12288622 6:0.25738361 7:0.28519336 8:0.12945454 9:0.30727669 10:0.34391706 11:0.48756105 12:0.50450289 13:1.6145699 14:4.3365512 15:30.601968 16:16.36688 17:5.1216892 18:3.3304583 19:2.0054497 20:3.0207106 
0.530669140803545 1:0.0067808408 2:0.019194916 3:0.055198547 4:0.16715562 5:0.37203248 6:0.28408304 7:0.21679183 8:0.31633317 9:0.49214309 10:0.52111429 11:0.43122918 12:0.9061497 13:1.2189244 14:2.2075364 15:12.721673 16:8.7698988 17:2.5580343 18:1.3914754 19:1.2550722 20:1.588569 
1 1:0.009393073 2:0.031500716 3:0.071891116 4:0.11338147 5:0.29534741 6:0.44833519 7:0.35852758 8:0.33063136 9:0.69525885 10:0.38405114 11:0.42394941 12:0.62521982 13:0.54526299 14:1.1119607 15:5.7977591 16:4.200051 17:1.5365306 18:1.0134202 19:0.67004969 20:0.61174086 
1 1:0.0060144598 2:0.03102465 3:0.082798838 4:0.17478582 5:0.19982421 6:0.27478622 7:0.28516021 8:0.26966781 9:0.47563672 10:0.34050856 11:0.18753426 12:0.3597591 13:0.34191566 14:1.064417 15:3.0316891 16:1.7346017 17:1.1211929 18:0.35773353 19:0.20540009 20:0.2032113 
1 1:0.011052983 2:0.024329856 3:0.033788612 4:0.085270117 5:0.20105325 6:0.10880527 7:0.15590887 8:0.12252889 9:0.26398457 10:0.18068198 11:0.077752099 12:0.13902525 13:0.15512725 14:0.37013116 15:0.69457495 16:0.41228837 17:0.21032647 18:0.12012531 19:0.10464387 20:0.10455411 
-0.07085290331599439 1:0.41409397 2:1.9281852 3:4.209505 4:14.292049 5:12.277723 6:5.5767868 7:4.7009395 8:5.0706057 9:12.330782 10:8.885672 11:2.6622743 12:6.579175 13:9.6045165 14:5.5370134 15:8.3360545 16:5.8338165 17:3.2162331 18:2.6794657 19:2.2215009 20:1.2282903 
-0.06541384539117059 1:0.55407422 2:2.6219508 3:5.7009263 4:27.5549 5:34.560179 6:15.323537 7:8.208627 8:8.04046 9:15.945372 10:28.739432 11:6.1062877 12:10.413805 13:14.977511 14:6.1893408 15:8.0998734 16:5.5891304 17:2.0796958 18:0.65140806 19:0.5090909 20:0.56851721 
-0.06674059822000028 1:0.51374159 2:2.6083518 3:5.5102308 4:23.18386 5:41.408056 6:15.75193 7:8.1214721 8:7.1201349 9:11.192878 10:42.547102 11:15.217697 12:12.258036 13:15.585595 14:7.0379978 15:7.9237603 16:6.2641659 17:2.7391641 18:0.47270745 19:0.50803172 20:0.65781741 
-0.06919546072156571 1:0.46947018 2:2.4964459 3:5.6553584 4:22.610735 5:35.931193 6:13.022782 7:7.0840273 8:5.8102441 9:6.4829664 10:24.792265 11:21.920858 12:21.007237 13:16.932314 14:6.4832413 15:8.5728353 16:4.9324288 17:1.5815559 18:0.40926822 19:0.64744708 20:0.83187829 
-0.0666414173588912 1:0.37825033 2:2.1378042 3:5.5767563 4:18.805159 5:24.55476 6:10.326568 7:6.7205221 8:5.6716588 9:7.1875989 10:26.254638 11:29.167954 12:21.54479 13:15.736694 14:11.588789 15:16.719297 16:5.1118968 17:1.4477308 18:0.26148698 19:0.73976327 20:1.4781256 
-0.07023377275640495 1:0.22405198 2:1.4558507 3:3.795123 4:14.693445 5:22.27411 6:5.7303869 7:3.776996 8:2.873393 9:4.1528779 10:18.872683 11:22.242848 12:20.479814 13:15.091154 14:16.568548 15:41.040553 16:11.04894 17:1.7956947 18:0.38274423 19:0.7701192 20:1.0600597 
-0.07064105127115236 1:0.17619525 2:1.2311648 3:3.0872411 4:9.360412 5:18.776303 6:6.8984949 7:4.0226804 8:3.0539177 9:6.1261617 10:24.221059 11:13.151232 12:18.239172 13:8.5696924 14:9.033451 15:31.82527 16:9.9932655 17:1.5548034 18:0.40374761 19:0.70677473 20:1.053109 
-0.04135930773638184 1:0.19628752 2:1.031279 3:1.580863 4:4.0875602 5:14.950939 6:8.0139773 7:4.5543791 8:5.7467769 9:8.3800668 10:9.5282341 11:3.4352985 12:8.5345482 13:4.3928022 14:4.2631012 15:11.609336 16:3.5382863 17:1.226208 18:0.98044775 19:1.0058318 20:0.87304917 
-0.06927275535644413 1:0.19592184 2:1.1175009 3:2.0011848 4:4.8124869 5:24.424916 6:19.626889 7:9.4881794 8:19.147842 9:21.012631 10:6.0090503 11:5.2022718 12:8.2209613 13:7.5381754 14:11.449432 15:27.532079 16:6.142814 17:1.552704 18:0.34448604 19:0.75785085 20:1.2913316 
-0.06491390731122627 1:0.31371792 2:1.3752174 3:2.1980003 4:6.1598581 5:28.891024 6:35.790648 7:27.143204 8:46.666964 9:13.950861 10:5.1902331 11:6.3871297 12:8.4674116 13:6.7743263 14:19.800278 15:23.861268 16:2.4620699 17:1.0686182 18:0.37532447 19:0.8491855 20:0.95207994 
-0.06555788986425394 1:0.38673858 2:1.7046208 3:3.2376634 4:8.3936682 5:40.853387 6:54.224339 7:40.796391 8:48.650839 9:7.8124606 10:3.0421907 11:2.988378 12:6.8810348 13:4.0315952 14:12.805773 15:11.077981 16:1.2122351 17:1.5709147 18:0.58820095 19:1.4544429 20:1.1979879 
-0.06627244545412464 1:0.44621716 2:1.9809839 3:4.147472 4:11.07134 5:54.401791 6:71.511958 7:63.943674 8:36.048024 9:6.0918847 10:2.827817 11:2.6215596 12:6.848937 13:5.1187756 14:9.2595323 15:6.5791396 16:0.83562344 17:1.0725961 18:0.6219404 19:2.276265 20:1.3776057 
-0.06444033964105313 1:0.47986163 2:2.2652161 3:4.9246431 4:14.116178 5:71.573948 6:98.573648 7:87.391419 8:34.39976 9:5.3045734 10:2.6175402 11:2.0308141 12:5.4174493 13:4.891834 14:6.2465205 15:4.0690011 16:1.1163389 17:1.6460363 18:1.0951157 19:2.4944784 20:1.5969826 
-0.06437366819094482 1:0.47878274 2:2.4358331 3:5.8335387 4:16.224184 5:88.539932 6:138.97983 7:83.382249 8:25.937983 9:5.7913398 10:2.0787142 11:1.7598643 12:7.0522648 13:9.3949079 14:8.464472 15:5.6463344 16:1.1805347 17:1.4967265 18:1.0822282 19:1.7500277 20:1.8280466 
-0.0655107006787974 1:0.47820698 2:2.4179921 3:6.2179281 4:17.833588 5:93.373398 6:153.94307 7:100.24703 8:19.961803 9:5.6385216 10:2.5434133 11:1.973616 12:5.0053005 13:9.3308518 14:9.3889504 15:7.2046572 16:0.97227955 17:0.83072188 18:0.9484696 19:4.2058563 20:2.9691817 
-0.06586873984878211 1:0.45987204 2:2.2826602 3:6.2082936 4:19.745731 5:92.326258 6:143.87054 7:119.65039 8:21.342932 9:4.9878242 10:2.5420279 11:1.9894522 12:4.1510739 13:9.8973908 14:11.615849 15:12.313577 16:1.7610936 17:0.72017688 18:0.95850055 19:2.903066 20:1.8567606 
-0.0628076228945714 1:0.44820969 2:2.1177539 3:6.0062894 4:21.169421 5:87.885558 6:119.03334 7:116.02559 8:21.905218 9:3.7559256 10:1.6942294 11:1.3064272 12:2.3108238 13:7.3147987 14:10.297273 15:14.657947 16:2.6322068 17:0.68467322 18:0.64468549 19:2.9433992 20:2.3036004 
