svm_type epsilon_svr
kernel_type rbf
gamma 0.05
nr_class 2
total_sv 136
rho -0.245015
SV
-0.01883942036230894 1:0.030786747 2:0.13529996 3:0.29571784 4:0.87230411 5:1.5810053 6:3.1265046 7:2.0439499 8:1.7079257 9:1.7465215 10:1.3822295 11:1.2231471 12:1.375468 13:0.97023894 14:1.090602 15:1.6893096 16:1.48489 17:2.0351325 18:2.3051719 19:2.3259487 20:1.9635655 
-0.1432581514866965 1:0.087211002 2:1.66059 3:3.5368378 4:8.3645964 5:16.27968 6:8.7411902 7:5.2029368 8:4.150352 9:2.7710763 10:2.9109616 11:6.5722742 12:15.052849 13:10.87417 14:12.84284 15:6.2064564 16:10.787225 17:5.8272151 18:6.0473394 19:1.1592342 20:0.42176862 
-0.1438615796249485 1:0.10114581 2:1.6030649 3:3.7911654 4:8.4977297 5:11.899114 6:3.8442231 7:2.9778012 8:2.4338667 9:1.9089056 10:2.1092165 11:3.6651501 12:10.383141 13:17.836561 14:9.8822896 15:4.4918205 16:6.9234337 17:5.184067 18:5.9523198 19:1.0158982 20:0.47279711 
-0.09837063428607272 1:0.11151068 2:0.91852396 3:2.2860475 4:4.467643 5:5.9218599 6:4.0389956 7:2.1471485 8:1.2699388 9:1.7998251 10:2.2165922 11:2.2598967 12:7.0707995 13:9.6168724 14:5.6214486 15:4.8889916 16:7.2588865 17:5.0464632 18:2.7117185 19:1.0903999 20:1.6494939 
-0.1409168681549205 1:0.13481838 2:1.5216442 3:3.0234292 4:8.0725488 5:25.622455 6:14.984165 7:6.5435623 8:3.1522291 9:3.0881576 10:3.1405026 11:5.9018462 12:13.601644 13:18.5683 14:8.9038454 15:7.8028981 16:14.010544 17:9.3391696 18:6.0809115 19:0.46866511 20:0.49929785 
-0.1470956901451854 1:0.16662693 2:1.5780477 3:3.3005057 4:7.0864901 5:18.189247 6:27.503169 7:9.2491371 8:7.1273399 9:5.0679742 10:5.9783731 11:14.28322 12:20.986702 13:21.456102 14:10.996024 15:10.188681 16:10.994399 17:8.4793679 18:6.2335237 19:0.55586954 20:0.737577 
-0.1420038617802163 1:0.18518611 2:1.6701796 3:3.7587012 4:6.0384683 5:16.807502 6:29.472882 7:16.619076 8:11.595542 9:8.4149469 10:9.0622441 11:22.993544 12:19.293713 13:22.676936 14:13.876741 15:13.906666 16:13.31966 17:8.7500079 18:5.120639 19:0.67985445 20:0.59163473 
-0.1454604719244321 1:0.18583386 2:1.9200234 3:3.7695405 4:5.4031027 5:12.765618 6:24.459605 7:18.452831 8:15.040841 9:11.82798 10:12.688988 11:28.191747 12:19.261939 13:22.572735 14:18.682456 15:18.047655 16:15.522655 17:10.506877 18:6.8051329 19:1.0981357 20:0.3922621 
-0.1263751553711259 1:0.15278831 2:1.9483298 3:2.5295617 4:4.5400696 5:11.584261 6:23.843901 7:15.749616 8:12.156698 9:8.8892649 10:10.457615 11:25.216167 12:15.042364 13:13.802204 14:16.734356 15:13.279669 16:10.348671 17:6.8051767 18:3.8037616 19:1.0368164 20:0.42539022 
-0.1296760504375084 1:0.16468562 2:1.8976224 3:2.8960889 4:4.2524129 5:11.233745 6:22.474265 7:12.681611 8:9.8767346 9:7.3797378 10:10.364408 11:23.506954 12:13.565952 13:11.406769 14:15.320668 15:12.492644 16:8.8123774 17:5.4931249 18:1.7622954 19:0.52312214 20:0.40530859 
-0.23374812711996 1:0.14434806 2:1.339044 3:3.2008347 4:2.911457 5:5.0176316 6:6.1787657 7:3.2067264 8:2.2585315 9:1.7065103 10:2.9749071 11:5.4108586 12:2.9420663 13:4.7754984 14:4.6934303 15:1.2100769 16:1.183676 17:1.1949011 18:1.0833585 19:0.22336734 20:0.17499947 
-0.03082538423436217 1:0.090757591 2:1.4255581 3:1.6756932 4:2.1316788 5:1.5854288 6:1.3274965 7:1.3217897 8:0.65160337 9:0.64472734 10:1.0239673 11:0.56324613 12:0.54984153 13:1.2816119 14:2.1253405 15:0.43456063 16:0.40928456 17:2.127751 18:2.4047478 19:0.34826502 20:0.19810952 
-0.1423504393725106 1:0.055676433 2:1.8260129 3:1.9722542 4:2.385203 5:9.6507945 6:12.954551 7:7.2601673 8:9.8646727 9:13.146534 10:12.638978 11:7.0770088 12:4.3223376 13:5.3816776 14:4.0619209 15:3.8343211 16:3.6108419 17:3.1180859 18:3.641763 19:0.84952717 20:0.58008526 
-0.1463068809141965 1:0.039380344 2:1.8023429 3:1.249433 4:2.1196903 5:7.3977023 6:9.9334939 7:10.416943 8:9.8473784 9:8.0141509 10:16.261935 11:17.477938 12:6.6245784 13:10.404031 14:11.076609 15:8.1829536 16:8.7661046 17:4.8396543 18:8.6031484 19:1.0707263 20:0.25492825 
-0.147379770987485 1:0.028357889 2:1.727541 3:1.028467 4:1.8550274 5:6.3254088 6:8.0993695 7:9.3224346 8:7.8008256 9:5.1976633 10:8.6619068 11:19.11043 12:6.5644124 13:8.4588678 14:9.9953689 15:7.3146724 16:8.5444351 17:5.8293761 18:8.0464676 19:1.0173111 20:0.18784556 
-0.1391294844286417 1:0.066049122 2:1.6754926 3:1.3363355 4:1.9174194 5:6.3272683 6:5.6245181 7:6.3228523 8:4.8395666 9:3.011496 10:4.7022127 11:11.703592 12:3.611013 13:5.4301883 14:10.107701 15:5.5520914 16:4.0271334 17:2.5256097 18:3.3132127 19:0.53123695 20:0.21320484 
-0.2014332289594877 1:0.049084745 2:1.0794643 3:0.9279321 4:1.3391896 5:1.4739821 6:0.63520263 7:0.37009274 8:0.23544945 9:0.37422541 10:0.48196437 11:0.22863452 12:0.19813503 13:0.2527598 14:0.73350233 15:0.32676294 16:0.32559467 17:1.0349588 18:1.4227106 19:0.42023687 20:0.36147422 
-0.1423335504713878 1:0.10249157 2:1.4170816 3:1.9236294 4:2.862605 5:7.8596559 6:10.32548 7:8.9072498 8:6.5008681 9:7.0540721 10:11.465605 11:8.6470383 12:4.3422905 13:6.3384044 14:9.2586724 15:9.4862882 16:5.8264172 17:2.521795 18:1.5321708 19:0.68572458 20:0.57273439 
-0.1356023613567212 1:0.13136288 2:1.3723919 3:2.6040319 4:3.5180116 5:5.5385886 6:12.383468 7:12.262754 8:12.017369 9:12.440321 10:16.103805 11:9.0512568 12:4.1024951 13:5.66831 14:10.670585 15:9.6198191 16:7.5673875 17:2.7922036 18:2.3833956 19:2.2135038 20:1.6005494 
-0.1356071486297926 1:0.12509234 2:1.2530942 3:3.3648016 4:3.7141056 5:4.8827479 6:9.1164583 7:11.825723 8:14.6696 9:15.288205 10:13.396987 11:5.745317 12:2.956639 13:4.2971258 14:9.4217336 15:7.2936431 16:6.6532317 17:1.7642827 18:1.5259298 19:0.73513442 20:0.32563352 
-0.1144105315778876 1:0.13087975 2:1.125983 3:3.7958663 4:3.5739884 5:4.4671879 6:7.2939804 7:10.721753 8:15.869494 9:16.690174 10:9.9908187 11:3.6748302 12:1.8405843 13:2.1824774 14:5.3222298 15:3.8001599 16:3.3288638 17:1.1316517 18:1.5012195 19:1.0784334 20:0.2571532 
-0.09042509820108457 1:0.12757718 2:1.0306831 3:3.8751435 4:3.2318491 5:4.2476602 6:6.8479003 7:9.700212 8:14.53929 9:14.740372 10:6.9712781 11:2.087219 12:0.85587959 13:0.79898539 14:2.0628242 15:2.4109992 16:3.8647902 17:1.8722457 18:1.6353421 19:0.80311476 20:0.23731879 
-0.03439203580412495 1:0.12247099 2:0.96340475 3:3.6471239 4:2.8235194 5:4.0194712 6:6.0662756 7:9.353148 8:12.383294 9:11.581885 10:4.311626 11:1.1709702 12:0.67481521 13:0.74004808 14:3.1821005 15:3.6962827 16:4.1669496 17:1.6566232 18:0.96887989 19:0.61635828 20:0.3353111 
-0.02579625175992631 1:0.12151526 2:0.94087917 3:3.5271127 4:2.7047641 5:4.1166129 6:6.353644 7:9.3314758 8:10.706754 9:10.250892 10:3.0648925 11:0.89810795 12:0.64863542 13:0.98060715 14:3.4507166 15:3.504496 16:3.215052 17:1.9341236 18:1.6833399 19:0.8389114 20:0.1690168 
-0.07299149062874412 1:0.12145658 2:0.97379734 3:3.3100502 4:2.727195 5:4.5074695 6:7.3698994 7:10.430894 8:11.407438 9:9.6829432 10:2.7091228 11:0.83931077 12:0.59404931 13:0.98698713 14:3.8041831 15:3.7548004 16:3.7561049 17:2.760283 18:2.2607805 19:0.94793162 20:0.16788438 
-0.03825532908533279 1:0.12637767 2:1.0282688 3:2.9216569 4:2.6886603 5:4.2246236 6:7.8812386 7:10.894258 8:14.186319 9:12.092324 10:4.0776269 11:1.3951522 12:0.75823069 13:1.0810064 14:3.8227611 15:3.1660244 16:3.6954494 17:3.1394873 18:2.047352 19:1.1088263 20:0.21831374 
-0.1335098703795054 1:0.12963949 2:1.1248439 3:2.5258628 4:2.9789114 5:5.2463151 6:10.531527 7:14.700899 8:19.01715 9:18.858201 10:8.4070738 11:3.0638794 12:1.6087887 13:2.1146483 14:4.0316966 15:2.764281 16:3.0945058 17:4.0035851 18:2.4571682 19:1.5611812 20:0.24657529 
-0.1333192700223208 1:0.13739898 2:1.1385765 3:2.2744221 4:3.1677369 5:6.4913168 6:13.369343 7:18.935241 8:17.948186 9:20.76892 10:12.933396 11:4.9362549 12:2.4343293 13:3.360891 14:6.3834483 15:3.4846044 16:3.8688171 17:4.903928 18:3.1225481 19:1.8350113 20:0.50810213 
-0.1369790622029459 1:0.1287344 2:1.1251975 3:2.181888 4:3.369069 5:7.6784639 6:15.375069 7:18.2579 8:14.417627 9:15.171457 10:15.015828 11:6.4324576 12:3.1507237 13:4.0284901 14:5.9496952 15:3.729766 16:3.4340321 17:3.5510492 18:2.2221203 19:1.2369319 20:0.51276869 
-0.1444404337850063 1:0.12709938 2:1.0918816 3:2.1989716 4:3.5104886 5:9.5444224 6:14.144759 7:12.125007 8:8.8395886 9:7.8776702 10:11.841845 11:6.9001368 12:2.7219895 13:4.1240721 14:5.3022116 15:3.9675197 16:2.5982129 17:1.9907775 18:0.8119013 19:0.43754956 20:0.30171512 
-0.0787617680799485 1:0.038952801 2:0.22200352 3:0.25969736 4:0.54773438 5:1.8653218 6:2.9395738 7:1.9758265 8:1.286112 9:2.7995512 10:2.0909902 11:1.3990989 12:2.7114528 13:1.8858715 14:8.1169642 15:4.0500915 16:2.0779512 17:1.5199024 18:0.92189968 19:0.71527758 20:1.2069082 
-0.2038189235937489 1:0.049995057 2:0.80035804 3:1.5120688 4:2.5515499 5:2.6375893 6:1.0556404 7:0.66750173 8:0.63137996 9:0.62438986 10:0.94941982 11:1.6117997 12:0.79057891 13:1.2410002 14:3.0676114 15:2.6483595 16:1.9110373 17:1.409751 18:0.89459566 19:0.53832884 20:0.26450896 
-0.1025216933615082 1:0.076605219 2:0.88812457 3:2.9556144 4:6.3763553 5:8.9893276 6:3.2676286 7:1.747452 8:1.5353217 9:1.5646816 10:2.6976169 11:6.1507742 12:2.1904209 13:2.3046269 14:7.990099 15:6.8634094 16:4.6561651 17:3.2912897 18:1.1388385 19:0.12928393 20:0.16727709 
-0.1389714382196409 1:0.067800257 2:0.92696656 3:2.598039 4:5.6130012 5:7.4999014 6:2.6466864 7:1.1315207 8:1.1087687 9:0.877591 10:1.6469448 11:4.323683 12:2.167807 13:1.275889 14:3.7313732 15:4.7207912 16:3.4969474 17:2.3033086 18:0.56835057 19:0.11887841 20:0.2080786 
-0.2971402671174863 1:0.0045555462 2:0.011566169 3:0.014907506 4:0.036768405 5:0.083058429 6:0.1146378 7:0.1776275 8:0.22942329 9:0.2823495 10:0.35966387 11:0.24260899 12:0.27964436 13:0.20201507 14:0.23120255 15:0.78343388 16:0.97234796 17:0.94971203 18:1.1786965 19:1.1171936 20:0.5227668 
-0.4167263324166478 1:0.02510692 2:0.11587666 3:0.29398191 4:0.64705186 5:1.1765198 6:1.3887049 7:1.3968169 8:1.4627125 9:1.3488167 10:1.3269844 11:1.0483665 12:1.3685895 13:1.0918948 14:1.6786847 15:3.0316808 16:4.0166654 17:3.2131896 18:5.2659421 19:8.0992268 20:5.8906149 
-0.5832235827720177 1:0.0069022558 2:0.019164235 3:0.033569242 4:0.075347859 5:0.16329866 6:0.13486572 7:0.16393742 8:0.33036207 9:0.29966095 10:0.36412067 11:0.38426769 12:0.61182796 13:0.90023547 14:1.6621169 15:2.5005759 16:4.3342828 17:3.7140746 18:8.9533777 19:14.597407 20:10.59211 
0.6361894563556872 1:0.007131795 2:0.031630671 3:0.037807835 4:0.1283117 5:0.3157118 6:0.23143618 7:0.23487662 8:0.56174462 9:0.55340137 10:0.40971165 11:0.53290677 12:0.79751646 13:1.5469732 14:2.710102 15:5.0814071 16:8.6471056 17:7.7735793 18:28.437201 19:23.756603 20:21.537003 
0.6212145343782893 1:0.0080835529 2:0.038922625 3:0.072905194 4:0.26548398 5:0.45197713 6:0.48398598 7:0.5011214 8:0.44619951 9:0.39748028 10:0.43020124 11:0.70208118 12:1.0335995 13:2.1527785 14:4.0676259 15:5.4854547 16:7.8976792 17:11.453466 18:32.818005 19:18.967921 20:17.848339 
0.5603179027747244 1:0.0045322734 2:0.030974287 3:0.12259494 4:0.19647758 5:0.41616371 6:0.50711071 7:0.67338745 8:0.55102811 9:0.66120861 10:0.65002149 11:1.1419943 12:1.6274048 13:3.2804099 14:4.7343411 15:5.0807656 16:10.95732 17:18.366858 18:28.877848 19:19.452756 20:17.134528 
0.5771358346327733 1:0.019900141 2:0.041421546 3:0.089753581 4:0.14667439 5:0.16020911 6:0.31874004 7:0.34378973 8:0.52771273 9:0.45528232 10:0.57890631 11:0.99042188 12:1.3171152 13:2.7561496 14:4.1444113 15:5.3967561 16:7.3973733 17:20.627991 18:24.384241 19:19.691838 20:17.251951 
0.6525124463477838 1:0.12485589 2:0.30083975 3:0.34106938 4:1.7454699 5:2.9707206 6:2.2698826 7:0.92583 8:1.1728481 9:1.2142596 10:1.5840281 11:2.4803857 12:2.9031653 13:5.6500173 14:6.6178815 15:5.2165765 16:6.8552607 17:19.244942 18:15.023251 19:13.352543 20:9.8570187 
0.8501263110003273 1:0.035201352 2:0.068253788 3:0.12045193 4:0.21749801 5:0.44504349 6:0.45391353 7:0.53036757 8:0.48367818 9:0.58526431 10:0.81613367 11:0.80518806 12:0.95819947 13:1.6279242 14:2.4692918 15:3.5332038 16:5.0779409 17:9.2574728 18:6.3971577 19:5.4689406 20:3.3339469 
1 1:0.056350337 2:0.82157344 3:1.2686392 4:2.6688535 5:1.7929419 6:0.81103766 7:0.67900044 8:0.54842466 9:0.46361961 10:0.82991827 11:0.84411163 12:0.37254854 13:0.59851901 14:0.89373401 15:1.7093544 16:1.952316 17:1.8898422 18:1.4647872 19:1.283193 20:0.71474813 
-0.1186016776979448 1:0.076484829 2:1.0555662 3:4.6717992 4:7.5560894 5:5.1002112 6:2.767218 7:1.5543916 8:2.124512 9:1.7470507 10:3.5491464 11:3.243017 12:0.61495538 13:1.4994961 14:3.1120063 15:4.917711 16:7.8165252 17:4.6429648 18:1.1302155 19:0.74226362 20:0.48615439 
-0.1429979717171747 1:0.091374085 2:0.93630328 3:4.1339778 4:6.9193191 5:9.5183759 6:3.7198664 7:1.7123796 8:1.6941269 9:1.6050813 10:3.0657332 11:5.577852 12:2.6329127 13:3.1657999 14:5.5769239 15:9.7118327 16:15.095547 17:9.9728169 18:2.9587895 19:1.2639342 20:0.74158321 
-0.1465483772402412 1:0.09560873 2:1.3114107 3:4.1660984 4:10.427038 5:15.873675 6:5.5565453 7:2.6086503 8:3.5645139 9:2.7853737 10:3.6011158 11:12.791159 12:9.524986 13:7.6951057 14:13.754568 15:10.597982 16:13.130782 17:8.6282484 18:2.1896948 19:0.31544592 20:0.64558698 
-0.1435232706678221 1:0.11823024 2:1.4346664 3:4.2122919 4:9.1036609 5:9.8889058 6:3.5675236 7:2.4148686 8:3.0951127 9:2.4109933 10:5.0928865 11:13.617144 12:12.848475 13:8.080635 14:5.1522724 15:5.8749773 16:6.4437041 17:3.8633159 18:0.92579389 19:0.22433816 20:0.29407558 
-0.2275482564243006 1:0.069346909 2:0.14532431 3:0.23996739 4:0.47621155 5:0.74331356 6:0.91556526 7:1.0491022 8:0.94910766 9:1.6913944 10:1.6359384 11:1.2762755 12:0.84962956 13:0.80485845 14:1.4239822 15:2.3243611 16:2.8906395 17:3.0146779 18:2.7206816 19:1.9484508 20:1.1227495 
-0.09265156468659499 1:0.048951722 2:2.1066747 3:2.9372053 4:8.3982715 5:6.8834271 6:3.6346821 7:2.4520776 8:2.2153047 9:1.3322195 10:1.2750857 11:2.5159524 12:7.3304986 13:8.7170219 14:6.9053374 15:3.6345044 16:4.2183939 17:3.0087082 18:1.9317789 19:0.40098573 20:0.27841047 
-0.1410997069026668 1:0.056461515 2:1.2761734 3:2.5209002 4:4.9426405 5:7.3275806 6:3.5571627 7:1.7546088 8:1.7636914 9:1.3386103 10:1.6510372 11:2.780157 12:9.2175238 13:10.526553 14:13.291803 15:10.196913 16:12.547064 17:8.1299732 18:3.4451679 19:0.43064177 20:0.22603632 
-0.2597267448249906 1:0.074284096 2:0.81491408 3:1.446328 4:1.7625807 5:2.1407473 6:0.8703837 7:0.35796208 8:0.32698511 9:0.25565032 10:0.21898543 11:0.45841377 12:0.99001031 13:0.81605977 14:0.86978166 15:0.48219378 16:1.0280693 17:1.176733 18:0.62581737 19:0.12091012 20:0.12164748 
-0.1043315378785984 1:0.10125728 2:1.3429246 3:2.2003845 4:3.2262165 5:6.3987323 6:4.0479527 7:2.1812136 8:1.8808412 9:1.3513922 10:1.2922813 11:3.5190304 12:5.2146643 13:3.267263 14:7.7615014 15:4.8383773 16:4.596972 17:4.1737463 18:1.7034314 19:0.49915973 20:0.32274083 
-0.1480596530160887 1:0.11267044 2:1.398447 3:1.4764832 4:3.4075671 5:5.9956588 6:5.1923139 7:3.2005666 8:2.7923896 9:2.390014 10:3.2605963 11:10.556488 12:9.6554162 13:10.823234 14:12.702929 15:9.2592352 16:7.5327981 17:5.8647445 18:2.8643442 19:0.2586864 20:0.18213703 
-0.04870284050563881 1:0.095696707 2:0.93932533 3:1.3316175 4:2.1792736 5:3.5250965 6:2.3154835 7:2.0100869 8:1.6028317 9:1.6977344 10:3.9925792 11:5.6606886 12:3.6226903 13:4.7510335 14:2.295278 15:2.7097311 16:2.1274933 17:1.5143694 18:1.0002201 19:0.14801486 20:0.13057458 
-0.8107829987526468 1:0.019199064 2:0.017309146 3:0.059775922 4:0.093204283 5:0.17137747 6:0.28764236 7:0.32597293 8:0.3672496 9:0.41010055 10:0.63359834 11:0.77188186 12:0.85626812 13:1.0094521 14:1.2121825 15:1.4012635 16:1.4614708 17:1.4530926 18:1.234496 19:0.94749508 20:0.75926918 
-0.07828075668293209 1:0.21520714 2:0.17143253 3:0.26737269 4:0.9338732 5:2.3007372 6:2.4292092 7:2.1743318 8:1.3321106 9:1.1097339 10:2.5540872 11:5.2734495 12:3.5256639 13:3.6514272 14:3.774675 15:3.5298853 16:3.5251521 17:3.368605 18:2.8591413 19:2.1570334 20:1.7804737 
-0.3117498046458401 1:0.04508174 2:0.062724396 3:0.091979093 4:0.22884469 5:0.50708875 6:0.32611528 7:0.20074279 8:0.20236288 9:0.095030013 10:0.36421089 11:1.1094634 12:1.3958378 13:1.8570776 14:1.12025 15:1.1070786 16:1.3362253 17:1.0105832 18:1.0362769 19:0.41500485 20:0.14122151 
-0.1504092068550772 1:0.032728421 2:1.4450987 3:1.6987109 4:2.8149314 5:1.8009762 6:1.0551032 7:0.87662658 8:0.42838935 9:0.31810963 10:0.31905605 11:0.60092036 12:1.464225 13:1.8686416 14:2.2136671 15:1.474996 16:1.519929 17:1.1497276 18:1.3304795 19:0.45001505 20:0.16056376 
-0.09388536494727336 1:0.064824667 2:1.3212506 3:3.134608 4:6.2474733 5:8.3157646 6:3.4256222 7:2.4892699 8:2.2778795 9:1.3325008 10:1.3891387 11:2.8172073 12:6.9902225 13:6.7151525 14:9.8855124 15:7.7272935 16:7.7955725 17:5.8252251 18:3.5536574 19:0.49477956 20:0.16270979 
-0.005731496660044689 1:0.093108005 2:0.96051008 3:3.0853456 4:5.8305923 5:7.5788037 6:1.9229913 7:1.4449056 8:1.2731262 9:0.85671003 10:0.95128245 11:1.7970354 12:4.8826955 13:4.6721681 14:7.493406 15:5.9193903 16:6.6145411 17:4.4207935 18:2.7736721 19:0.30951229 20:0.16183834 
-0.1275050063777898 1:0.10513945 2:1.1139448 3:3.2925865 4:5.3802371 5:5.2341445 6:1.9089102 7:1.4651585 8:1.4205468 9:0.93277698 10:0.97994001 11:1.8588529 12:4.9638848 13:5.0829072 14:8.8790738 15:11.923638 16:10.916355 17:7.1556178 18:3.2795913 19:0.3974381 20:0.16702469 
-0.1069602494011095 1:0.10108343 2:1.0184498 3:1.8921718 4:3.2793801 5:2.946324 6:0.91367283 7:0.88884176 8:0.58397979 9:0.39464084 10:0.53076957 11:0.79732532 12:2.4218537 13:2.656808 14:4.5935492 15:6.9442342 16:7.4095172 17:5.0301819 18:2.1940052 19:0.66740776 20:0.35180041 
-0.08695136450834082 1:0.0034409237 2:0.0074952381 3:0.012683284 4:0.043526593 5:0.07782146 6:0.053820984 7:0.10229485 8:0.17192621 9:0.10966624 10:0.23071426 11:0.18147791 12:0.28975562 13:0.45672595 14:0.73432883 15:0.86482923 16:0.58636304 17:0.34516676 18:0.22829142 19:0.18154232 20:0.12858823 
-0.008160202957918444 1:0.010785495 2:0.022424071 3:0.1155282 4:0.40609902 5:0.42378472 6:0.61535814 7:0.96018712 8:1.2797533 9:0.99287106 10:1.6044207 11:1.5238381 12:2.0575579 13:3.3309339 14:5.772246 15:6.5355209 16:4.5526374 17:2.7090152 18:1.6264607 19:1.323052 20:1.5251516 
-0.146300370004929 1:0.012952397 2:0.024476412 3:0.068551264 4:0.15045799 5:0.2827458 6:0.31288652 7:0.13066171 8:0.30632312 9:0.38450175 10:0.62800936 11:1.7300494 12:4.6578733 13:16.186935 14:22.850157 15:12.713434 16:6.3102341 17:6.0237566 18:5.7076481 19:4.6656186 20:6.2131071 
-0.1453369579807929 1:0.016397863 2:0.038037904 3:0.11665105 4:0.24633103 5:0.28059855 6:0.35715495 7:0.25299287 8:0.27903892 9:0.60001319 10:0.92858474 11:3.4671489 12:11.491312 13:25.223636 14:15.451978 15:7.4035007 16:4.5130658 17:3.8135654 18:3.2962442 19:3.2801519 20:4.5372964 
-0.128881401248425 1:0.012998268 2:0.10854952 3:0.15041635 4:0.2213697 5:0.51371324 6:0.60406053 7:0.28305982 8:0.31668842 9:0.70019661 10:1.2921057 11:3.3341642 12:7.2964069 13:7.1707812 14:4.0340616 15:2.0402753 16:1.5522646 17:1.3251872 18:1.3026059 19:1.5393936 20:1.6842097 
-0.05263063322967342 1:0.053740621 2:1.1045091 3:2.8313325 4:3.6383364 5:2.976614 6:1.4117803 7:0.89996347 8:1.0325797 9:1.1890958 10:2.392538 11:7.1254569 12:4.4775914 13:1.5894128 14:0.99327865 15:0.68973523 16:0.91304616 17:0.86088971 18:0.87840317 19:0.53561479 20:0.40717935 
-0.1337588675380246 1:0.078276626 2:0.85692764 3:3.0785055 4:4.6356704 5:4.7817163 6:2.3139155 7:1.777089 8:2.034019 9:2.1881129 10:6.3954408 11:14.16657 12:4.9147065 13:0.71437449 14:0.36095634 15:0.45554428 16:0.98862952 17:1.1207229 18:1.0469876 19:0.26085953 20:0.13783447 
-0.07377473581736986 1:0.082814459 2:0.84231454 3:2.6890388 4:4.122568 5:4.8017755 6:1.9832119 7:1.3753582 8:1.543926 9:1.5509939 10:5.178757 11:6.9069347 12:2.268689 13:0.3515427 14:0.18867292 15:0.2662476 16:0.50126201 17:0.70100191 18:0.65060732 19:0.19256207 20:0.11778852 
-0.01749561238012411 1:0.10099704 2:0.93015173 3:2.32362 4:4.4025296 5:6.1360053 6:2.7522789 7:1.6276638 8:1.6208601 9:1.2486481 10:3.4432496 11:8.5656877 12:3.8330841 13:0.41770834 14:0.22747315 15:0.24283802 16:0.50361438 17:0.64772697 18:0.4535542 19:0.17425737 20:0.1141317 
-0.0722853919388253 1:0.10803616 2:0.86384166 3:2.2238551 4:4.2830484 5:6.7774229 6:4.3175552 7:1.7586047 8:2.1218822 9:1.2824494 10:1.9511969 11:6.5185384 12:4.9423609 13:0.7867237 14:0.27411269 15:0.28724293 16:0.73405858 17:1.4141359 18:1.045159 19:0.19799763 20:0.11952222 
-0.1100905056044705 1:0.015592648 2:0.033128951 3:0.13728005 4:0.14724001 5:0.21988112 6:0.72815361 7:0.70507317 8:0.92454501 9:1.0629466 10:1.652544 11:1.11765 12:1.987532 13:3.8704707 14:6.7701513 15:8.7304708 16:2.6825334 17:1.258155 18:0.53109671 19:0.52784253 20:0.50738271 
-0.1431399322528039 1:0.05127267 2:0.058028208 3:0.270017 4:0.40870826 5:0.69874597 6:1.4398178 7:1.9232792 8:2.5080738 9:2.7256467 10:2.3512267 11:2.049111 12:4.3523224 13:9.7843587 14:15.383549 15:24.936086 16:12.470728 17:5.3337768 18:3.797015 19:4.3791565 20:4.9635942 
-0.1421733345172813 1:0.09793524 2:1.3751211 3:4.2675162 4:8.3165527 5:8.1242411 6:3.4676839 7:2.8438908 8:2.5365852 9:1.497411 10:1.8973185 11:5.2926706 12:14.799873 13:16.018407 14:7.1634514 15:6.2316357 16:9.4498367 17:7.0899166 18:2.5990236 19:0.44959908 20:0.17105206 
-0.1065291810394819 1:0.10755872 2:0.89271283 3:3.7530596 4:8.6761469 5:9.2759555 6:2.7045065 7:2.0951416 8:1.8553087 9:1.258183 10:1.7576599 11:3.9403255 12:7.9143215 13:7.8096537 14:3.059567 15:3.4038167 16:5.5453533 17:4.9303991 18:2.0307848 19:0.38607148 20:0.1533715 
-0.116766726260778 1:0.11408665 2:0.7300169 3:3.1240004 4:11.326431 5:8.9269833 6:3.2561364 7:1.4427393 8:1.2421942 9:0.9729759 10:1.0622711 11:2.3684911 12:3.4064062 13:2.6044685 14:2.1542521 15:3.1445355 16:4.3879433 17:3.9611441 18:1.1977374 19:0.26073694 20:0.14259504 
-0.02830959735949385 1:0.11322213 2:0.89120807 3:3.31527 4:7.9198856 5:5.9626437 6:2.3336841 7:1.3667598 8:1.3227299 9:0.84441665 10:1.1780013 11:2.6768884 12:3.8025659 13:4.3522906 14:5.1171901 15:3.6636403 16:5.2778267 17:4.463033 18:1.4234787 19:0.22950048 20:0.14007388 
-0.08013529399210877 1:0.11802829 2:1.0537222 3:3.0945367 4:5.8934074 5:4.2250889 6:2.0706572 7:2.0888973 8:1.6616253 9:1.1526187 10:1.5602175 11:4.3506357 12:4.9154384 13:5.3177807 14:8.8335696 15:5.6627603 16:8.6281475 17:4.7406085 18:1.6408848 19:0.78756039 20:0.50430933 
-0.4270922642380283 1:0.0942859 2:0.56330086 3:0.63036898 4:2.1304681 5:1.5236932 6:0.50090345 7:0.4150439 8:0.35175086 9:0.23925005 10:0.33988527 11:0.63380801 12:0.65976316 13:1.0561692 14:2.4865491 15:3.4824445 16:8.0026365 17:7.9039497 18:8.1886779 19:4.4490973 20:3.8739885 
0.6117590858650905 1:0.025559612 2:0.066525574 3:0.053159667 4:0.15021415 5:0.17918415 6:0.21256518 7:0.19936836 8:0.20410304 9:0.24066127 10:0.20120199 11:0.4709015 12:0.4236772 13:0.74056736 14:1.9874085 15:5.6714661 16:13.697563 17:15.508129 18:7.528951 19:7.8330095 20:9.4517421 
0.6335327310205752 1:0.0073554724 2:0.042694214 3:0.075802619 4:0.13349548 5:0.34407971 6:0.23971431 7:0.23289529 8:0.26833612 9:0.30905737 10:0.32903145 11:0.5913906 12:0.747064 13:1.5162989 14:4.2540531 15:12.133504 16:11.781334 17:15.604839 18:10.226595 19:11.692778 20:11.663209 
0.6529568731092539 1:0.0096935703 2:0.032361521 3:0.060968365 4:0.15362756 5:0.45687204 6:0.52411954 7:0.54663345 8:0.66885743 9:0.71716536 10:0.59290042 11:0.8754937 12:1.443424 13:4.9900868 14:8.4111425 15:17.874022 16:15.728554 17:13.90785 18:13.082529 19:8.4422377 20:7.4345921 
0.6511870787790461 1:0.07247613 2:0.086600673 3:0.14129173 4:0.32918388 5:0.56030101 6:0.45385566 7:0.71373898 8:0.52075212 9:0.59472638 10:1.4833559 11:6.9610903 12:9.1741095 13:20.353531 14:12.3546 15:11.114095 16:12.374725 17:12.59652 18:5.3940722 19:4.5616039 20:4.3498141 
1 1:0.01863201 2:0.032884271 3:0.056721179 4:0.10614549 5:0.097841489 6:0.073463872 7:0.10393733 8:0.10974557 9:0.15344144 10:0.28839417 11:1.0545337 12:1.0286192 13:1.1762264 14:0.91072812 15:0.78063459 16:1.0084049 17:0.82860202 18:0.64235196 19:0.51744921 20:0.386033 
-0.09848401948871309 1:0.066460861 2:0.74794692 3:1.3552885 4:3.4657623 5:2.8429007 6:1.6371535 7:1.339144 8:1.4521704 9:1.9461708 10:2.6024831 11:1.6679974 12:0.72699662 13:0.56220711 14:0.54334116 15:0.45289655 16:0.59851208 17:0.5802275 18:0.52083992 19:0.35555634 20:0.42055596 
-0.1426911783968439 1:0.099909272 2:0.81528379 3:3.2839983 4:9.7843662 5:10.530543 6:4.3155748 7:3.0373058 8:3.596769 9:4.7470338 10:11.985742 11:9.9340978 12:2.3143991 13:0.39929898 14:0.20321542 15:0.33972886 16:0.59731047 17:1.3834875 18:0.96031015 19:0.16468255 20:0.12815324 
-0.1328145697862907 1:0.1122375 2:0.72621837 3:2.8311128 4:8.6106751 5:9.7629671 6:6.3994138 7:3.1512688 8:3.1628884 9:2.7740589 10:6.7268987 11:14.621954 12:5.8615589 13:0.60988158 14:0.28809463 15:0.57844079 16:1.0687086 17:2.1118477 18:1.1653779 19:0.1733697 20:0.10352507 
-0.09917687149455975 1:0.11521817 2:0.69826332 3:2.7495849 4:6.9197173 5:9.9886586 6:8.1105151 7:2.7393425 8:3.0424431 9:1.9362061 10:2.992501 11:6.6815077 12:3.7163949 13:0.93762078 14:0.56661402 15:0.84785761 16:1.5697403 17:2.1536465 18:1.0108872 19:0.26861316 20:0.11153342 
-0.01988531053803571 1:0.11178409 2:0.72622588 3:2.7949043 4:6.0778632 5:10.244173 6:9.1305198 7:3.092366 8:2.9909067 9:1.7760738 10:2.9050676 11:6.7577467 12:4.4560778 13:2.393013 14:0.96246462 15:1.529645 16:2.255552 17:1.8473226 18:0.48712606 19:0.16956616 20:0.12662584 
-0.1035138337579708 1:0.10181539 2:0.81651404 3:2.7399287 4:5.8686513 5:10.841623 6:10.196504 7:3.4817103 8:2.8527264 9:1.9476034 10:2.6152852 11:3.6932553 12:2.7460256 13:2.9358673 14:1.9982817 15:2.7889479 16:3.5054129 17:2.3474717 18:0.66904388 19:0.18572475 20:0.15968407 
-0.133847084160107 1:0.093616352 2:1.0919427 3:2.7421166 4:5.6238187 5:8.7137005 6:9.0930289 7:4.3068698 8:3.7108629 9:2.7002088 10:4.8818656 11:8.0246928 12:3.5116667 13:3.8787318 14:5.8594634 15:4.7660155 16:4.547871 17:2.5730972 18:1.047442 19:0.368284 20:0.19025616 
-0.1033830739355042 1:0.087927656 2:1.453584 3:2.5728962 4:5.7846088 5:9.4397965 6:4.7253111 7:4.9792705 8:3.7407334 9:2.4823552 10:4.3053601 11:6.8699165 12:2.4353472 13:3.3418744 14:8.3840508 15:6.6868578 16:6.5480352 17:4.1478099 18:2.1039145 19:0.44332186 20:0.16092832 
-0.1853306498289544 1:0.068384098 2:1.3057013 3:1.3440376 4:2.7549909 5:5.3180056 6:0.85149559 7:1.3767553 8:0.67774702 9:0.65434472 10:0.9966049 11:1.4113189 12:0.57240864 13:0.93042501 14:2.3200955 15:2.5835676 16:3.4029651 17:5.6773842 18:2.6156859 19:2.092743 20:1.7024818 
-0.5900393366363924 1:0.031397401 2:0.23957939 3:0.19694013 4:0.24056927 5:0.30963449 6:0.20686993 7:0.19265847 8:0.23455968 9:0.23064723 10:0.2646025 11:0.34666643 12:0.44256372 13:1.0594891 14:2.852196 15:3.3038966 16:6.4104967 17:12.708105 18:7.7333916 19:5.109431 20:6.8073573 
0.6497384501855548 1:0.0096280361 2:0.018763465 3:0.057616552 4:0.089844572 5:0.14546726 6:0.19781955 7:0.30700662 8:0.27122594 9:0.25352299 10:0.2552567 11:0.3043929 12:0.49717558 13:0.89672668 14:2.4212644 15:4.2871849 16:10.582203 17:23.455519 18:15.582566 19:7.3687426 20:10.495946 
0.7793784558913099 1:0.010751813 2:0.031851857 3:0.080393319 4:0.094951297 5:0.11786014 6:0.12918611 7:0.15082672 8:0.17945722 9:0.22104451 10:0.25014721 11:0.30855926 12:0.49479244 13:1.7757384 14:3.6090292 15:4.5203528 16:7.1206631 17:15.018472 18:10.534433 19:7.3401187 20:8.2992182 
0.5988257559170417 1:0.063694203 2:0.16294733 3:0.24421121 4:0.31142961 5:0.39975617 6:0.24819759 7:0.42592007 8:0.28931108 9:0.27480873 10:0.41322876 11:0.38494736 12:0.6217049 13:3.7537976 14:7.1467698 15:6.0090471 16:6.7383556 17:9.4136817 18:6.9042439 19:5.0314633 20:4.4122465 
1 1:0.012793057 2:0.015680517 3:0.029855396 4:0.036297705 5:0.030113948 6:0.023815339 7:0.034580901 8:0.02928257 9:0.038574136 10:0.069293753 11:0.051541825 12:0.05179805 13:0.1025936 14:0.18028824 15:0.15480996 16:0.1343549 17:0.20623945 18:0.17959222 19:0.19404125 20:0.23695066 
-0.9595895543506598 1:0.002426132 2:0.0089396698 3:0.0096979402 4:0.0088283758 5:0.0099814237 6:0.014864477 7:0.017427385 8:0.023162325 9:0.044098136 10:0.038366043 11:0.061794371 12:0.078252051 13:0.078632392 14:0.086138713 15:0.062174579 16:0.088275173 17:0.09606131 18:0.092585479 19:0.097783766 20:0.092579943 
-0.1478376373003674 1:0.080803297 2:1.2362146 3:2.6511965 4:4.7364275 5:9.0783509 6:19.457523 7:25.128316 8:20.705216 9:12.744567 10:4.5437188 11:2.7534239 12:1.917156 13:5.2509265 14:5.2496396 15:2.4204916 16:2.6850314 17:1.5785668 18:2.0155002 19:0.46200946 20:0.17603607 
-0.140730483386757 1:0.1004535 2:0.73168714 3:2.4239043 4:4.3647141 5:8.4035158 6:21.52732 7:23.779513 8:30.157652 9:18.437482 10:4.9941577 11:1.7447273 12:1.1058 13:3.133766 14:4.4026483 15:1.9774895 16:2.1849326 17:1.528936 18:2.318217 19:0.48606221 20:0.21990721 
-0.1310552779811138 1:0.10476916 2:0.6239838 3:2.1345212 4:3.6793699 5:5.5552431 6:17.136938 7:17.152586 8:24.068388 9:10.705107 10:2.2670069 11:0.97153828 12:0.5574674 13:1.8595204 14:3.407053 15:1.5462822 16:1.8895607 17:0.99503295 18:1.5017973 19:0.40123632 20:0.14048853 
-0.1190393263367543 1:0.11392103 2:0.66487846 3:2.1791319 4:3.56618 5:6.1508777 6:15.805204 7:22.640226 8:27.131424 9:9.4083209 10:2.3476491 11:1.1085165 12:0.6143023 13:1.2856434 14:1.9064897 15:0.7192725 16:0.73774887 17:0.68028901 18:1.2638591 19:0.38405756 20:0.15348057 
-0.1163205277657348 1:0.12217199 2:0.67848534 3:2.1121305 4:2.8392217 5:5.6261743 6:11.661245 7:24.669731 8:23.395436 9:8.1350927 10:1.6515316 11:0.92602187 12:0.62294509 13:1.511709 14:2.6310953 15:1.0025083 16:1.3080793 17:0.54638981 18:1.0424643 19:0.62541753 20:0.20714515 
-0.1084740766598533 1:0.12627457 2:0.66469897 3:2.0359117 4:2.2559019 5:4.7060129 6:8.9540821 7:21.515233 8:18.107384 9:8.9029642 10:1.2346364 11:0.85187733 12:0.53672278 13:1.4594843 14:1.6336681 15:0.70155969 16:1.3763877 17:0.7283262 18:0.5129518 19:0.33095171 20:0.16407185 
-0.05735368550486526 1:0.13707572 2:0.59634955 3:1.9653329 4:2.3172433 5:4.4477941 6:9.5869619 7:18.534646 8:15.233819 9:9.1729674 10:1.9174259 11:1.1252307 12:0.70853829 13:2.1704438 14:2.0053961 15:1.0429057 16:2.1534976 17:1.1248522 18:0.75472195 19:0.30667268 20:0.14777448 
-0.07138258353626953 1:0.15003376 2:0.6469871 3:2.1146707 4:2.5790772 5:4.3164848 6:10.553321 7:17.12288 8:16.44856 9:11.095121 10:3.3317333 11:2.0124291 12:1.2647566 13:3.6090481 14:2.1298521 15:1.5798577 16:1.8444864 17:1.1910911 18:0.43195465 19:0.28660958 20:0.18225484 
-0.1008042506153848 1:0.17198746 2:0.68899732 3:2.1887498 4:2.4329345 5:4.4677667 6:9.6965788 7:14.25561 8:13.075992 9:12.384632 10:4.9242445 11:2.3487023 12:1.5134326 13:3.2332577 14:1.7256432 15:1.7537541 16:1.8124518 17:1.3816058 18:0.61477111 19:0.57554908 20:0.20551642 
-0.1303198474981924 1:0.18075615 2:0.69028299 3:1.9043087 4:1.7762477 5:3.9882398 6:6.3331793 7:8.5147493 8:7.9853173 9:9.3080776 10:5.6259051 11:2.3127119 12:1.9622985 13:3.0116192 14:1.0753772 15:1.1471708 16:1.8835425 17:0.98056022 18:0.47558032 19:0.47489423 20:0.25394951 
-0.1353834736459735 1:0.026689378 2:0.095583829 3:0.25426404 4:0.45380528 5:1.1903083 6:1.2994731 7:1.4046981 8:2.8926885 9:4.5841959 10:8.8717751 11:8.0437335 12:1.4224854 13:0.86910802 14:1.0336155 15:0.93327675 16:0.55430703 17:1.3271802 18:1.7434939 19:1.0332993 20:0.48970519 
-0.161690059204792 1:0.0034425161 2:0.01025713 3:0.027498274 4:0.019846267 5:0.070400374 6:0.093471588 7:0.12193718 8:0.10430021 9:0.14999616 10:0.15602114 11:0.16760492 12:0.2547145 13:0.43487711 14:0.94728714 15:1.5615108 16:2.1713735 17:2.8181448 18:4.7563526 19:7.282994 20:4.3909894 
0.768970758880922 1:0.0041117622 2:0.019255415 3:0.022646083 4:0.051135517 5:0.11398507 6:0.12219115 7:0.17433004 8:0.17023195 9:0.13367008 10:0.22688571 11:0.31298581 12:0.41994868 13:0.48804031 14:0.97439027 15:2.1745056 16:3.9035136 17:3.8163116 18:7.846459 19:11.226716 20:7.2599059 
0.489105810088326 1:0.0042158193 2:0.027658997 3:0.04648983 4:0.09861187 5:0.27401221 6:0.31833876 7:0.2261086 8:0.23259266 9:0.21508487 10:0.30335693 11:0.25824434 12:0.43266925 13:0.7295331 14:1.1996181 15:2.0271885 16:4.4976915 17:6.0568973 18:13.260087 19:12.176358 20:11.445742 
0.5588237784086905 1:0.005083477 2:0.015833505 3:0.031263018 4:0.10081829 5:0.29941645 6:0.34834468 7:0.36709858 8:0.27178908 9:0.34335603 10:0.35527651 11:0.31900887 12:0.55423382 13:0.75651185 14:1.2638707 15:3.3961925 16:5.2812675 17:7.2751885 18:16.824549 19:10.074626 20:7.0371324 
0.3828023397865722 1:0.0144302 2:0.030266213 3:0.069852588 4:0.10681253 5:0.2114986 6:0.28657194 7:0.38979164 8:0.31149364 9:0.34140451 10:0.2580142 11:0.30204329 12:0.49323258 13:1.2612098 14:1.9776852 15:3.2277014 16:6.3670418 17:6.2056028 18:13.601358 19:15.895158 20:10.2018 
0.5058126544574539 1:0.01279301 2:0.047284542 3:0.043089343 4:0.13389583 5:0.31836061 6:0.2568197 7:0.47555442 8:0.69811435 9:0.76892829 10:0.74818746 11:0.64488099 12:0.96315187 13:1.5733076 14:3.6297349 15:4.3271937 16:8.2749486 17:9.832241 18:12.985271 19:16.225149 20:9.4473652 
0.6270390157346428 1:0.022827106 2:0.054886871 3:0.08710228 4:0.10884818 5:0.52296874 6:0.50353213 7:0.53120197 8:0.92428012 9:0.83187501 10:0.79756376 11:0.9234652 12:1.3535692 13:1.4441142 14:2.6839724 15:3.0766243 16:4.0116224 17:5.6274565 18:4.9781835 19:8.9063592 20:10.273841 
1 1:0.023178663 2:0.2598819 3:0.26259174 4:0.29269061 5:0.74950609 6:0.6853493 7:0.43659604 8:0.41071904 9:0.2606931 10:0.37478496 11:0.74529248 12:0.37015575 13:0.5993097 14:1.2639751 15:1.1802745 16:1.3002449 17:2.0640168 18:1.199925 19:1.1491206 20:0.90494179 
1 1:0.12364529 2:0.95823194 3:2.2664406 4:3.9249833 5:6.9732964 6:4.8179108 7:4.5849252 8:2.5111261 9:1.5622921 10:2.260605 11:4.1032612 12:2.2841049 13:1.9843102 14:4.4379389 15:3.2268784 16:1.7301994 17:2.7707974 18:1.7960585 19:0.6065078 20:0.36354127 
-0.2710378293519409 1:0.11396369 2:0.59710748 3:1.9171033 4:3.0159984 5:7.4252155 6:5.1127365 7:3.0494147 8:2.1140921 9:1.0212607 10:1.1419414 11:2.4056981 12:1.4596411 13:1.1589102 14:3.2532892 15:2.4496868 16:1.3483821 17:2.1142128 18:1.315597 19:0.43550101 20:0.19846677 
-0.2355323656306986 1:0.11891317 2:0.6901204 3:2.1444791 4:3.4513633 5:8.4388454 6:5.5514583 7:3.8844947 8:2.57144 9:1.0343434 10:1.1215674 11:2.2566631 12:2.8561956 13:1.9784878 14:3.1960081 15:2.6792594 16:1.3845109 17:1.8296945 18:0.99736862 19:0.43518513 20:0.22738652 
-0.2247596304944798 1:0.11646061 2:0.81984556 3:2.3415846 4:3.2913876 5:6.6645475 6:4.7073019 7:3.650478 8:1.9445427 9:0.95890166 10:0.98868967 11:1.7211268 12:3.6239111 13:3.4382794 14:4.2601118 15:3.2476043 16:1.6100212 17:2.2674736 18:1.6531086 19:0.64330465 20:0.24071267 
-0.09052572707494784 1:0.12668232 2:0.86273668 3:3.7066938 4:2.3556448 5:4.3249632 6:3.9314987 7:3.3027829 8:2.09721 9:1.0851785 10:0.80208709 11:1.2523663 12:3.9938215 13:7.7049565 14:7.6296522 15:6.7261329 16:3.7439004 17:2.6983444 18:1.8701677 19:0.67083444 20:0.38775857 
-0.05487471970627825 1:0.13566409 2:0.78655573 3:4.4963321 4:1.4368978 5:2.9286614 6:2.2670747 7:2.1132716 8:1.0883401 9:0.62310881 10:0.40655199 11:0.43460579 12:1.6322939 13:5.1605013 14:6.8835201 15:5.1081193 16:2.773392 17:1.8683857 18:0.82130424 19:0.56358294 20:0.23324746 
-0.07201694503266035 1:0.091125726 2:0.54955385 3:2.3244593 4:0.93659745 5:0.78084961 6:0.83076478 7:0.65567142 8:0.25065679 9:0.26474056 10:0.35231114 11:0.34184846 12:0.25695046 13:0.46356518 14:0.41683673 15:0.15541681 16:0.253362 17:1.6029466 18:0.81352144 19:0.2681753 20:0.12797464 
-0.1565841845426983 1:0.13655143 2:0.85304792 3:4.5864512 4:2.7806196 5:4.4802001 6:5.6965032 7:8.7039605 8:5.4291234 9:2.4639942 10:2.1601292 11:5.2730362 12:3.7742174 13:2.8335358 14:6.4517701 15:5.1231994 16:1.8302396 17:1.8010089 18:1.014677 19:0.38407681 20:0.1509593 
-0.02870722990973212 1:0.149815 2:0.80458836 3:4.5629812 4:2.5833039 5:3.4772738 6:7.2936956 7:10.761022 8:8.503949 9:3.5087974 10:3.1615125 11:5.4353342 12:2.8106632 13:3.3257042 14:6.892032 15:4.2823261 16:1.6081263 17:1.4448163 18:2.5845584 19:0.69126744 20:0.17385623 
-0.01162408886252952 1:0.15321108 2:0.72458538 3:3.6848274 4:2.0988696 5:3.1127055 6:7.8650477 7:8.6999363 8:8.4920483 9:2.9758135 10:2.9052041 11:4.3119853 12:2.5637719 13:3.2338681 14:5.6794803 15:3.3324164 16:1.2947692 17:0.81421693 18:1.0847478 19:0.38164514 20:0.11601106 
-0.07718120529890257 1:0.1498772 2:0.70747416 3:3.4522748 4:2.1772468 5:3.2225171 6:8.491495 7:9.3368669 8:8.7832945 9:3.4557653 10:3.3266253 11:3.60905 12:1.8317578 13:2.5567175 14:5.503189 15:4.5884204 16:2.1391849 17:0.86717039 18:1.0360236 19:0.51309227 20:0.22950857 
-0.1131504236827357 1:0.14069983 2:0.93686086 3:3.4226885 4:2.1040068 5:3.4272829 6:7.0961564 7:11.426799 8:8.8281077 9:5.1121463 10:6.0055829 11:7.7887661 12:2.4836284 13:2.1837038 14:4.8330322 15:2.7857925 16:1.5703025 17:1.0170369 18:1.3825023 19:0.87990684 20:0.43533927 
-0.3487250423100748 1:0.14317428 2:0.91479401 3:0.6274128 4:0.65486085 5:1.0242534 6:1.0438412 7:1.3022701 8:0.86053444 9:0.46698031 10:0.99736817 11:1.4300619 12:0.45533471 13:0.52050396 14:1.1068374 15:0.89039708 16:0.80705837 17:1.5645011 18:0.59960712 19:1.2071179 20:0.57614912 
-0.3267548298514871 1:0.020084352 2:0.099416916 3:0.16685824 4:0.20935625 5:0.29538038 6:0.23210994 7:0.2605464 8:0.21455869 9:0.17087749 10:0.21908917 11:0.2867276 12:0.27648077 13:0.31503824 14:0.64707591 15:0.89396641 16:1.2193525 17:1.0054186 18:0.95404007 19:1.631715 20:2.4688296 
-0.08872089547744964 1:0.039438774 2:0.51583137 3:0.74097411 4:0.73422215 5:1.0263691 6:0.77269777 7:0.44174791 8:0.24894118 9:0.14527706 10:0.080218801 11:0.10940404 12:0.47022248 13:3.152533 14:3.3112659 15:1.1965745 16:1.3580348 17:3.0793528 18:0.46147176 19:0.25400742 20:0.18343233 
-0.002920946767877353 1:0.056554259 2:0.072585641 3:0.090218197 4:0.24475505 5:0.18507466 6:0.22199052 7:0.22825655 8:0.27433406 9:0.32700465 10:0.28137698 11:0.2755553 12:0.99937839 13:1.1810357 14:0.93845204 15:1.3162928 16:1.490174 17:0.78855633 18:0.52546026 19:0.38063904 20:0.19601692 
